{"learner":{"attributes":{"scikit_learn":"{\"_estimator_type\": \"classifier\"}"},"feature_names":[],"feature_types":[],"gradient_booster":{"model":{"gbtree_model_param":{"num_parallel_tree":"1","num_trees":"500"},"iteration_indptr":[0,1,2,3,4,5,6,7,8,9,10,11,12,13,14,15,16,17,18,19,20,21,22,23,24,25,26,27,28,29,30,31,32,33,34,35,36,37,38,39,40,41,42,43,44,45,46,47,48,49,50,51,52,53,54,55,56,57,58,59,60,61,62,63,64,65,66,67,68,69,70,71,72,73,74,75,76,77,78,79,80,81,82,83,84,85,86,87,88,89,90,91,92,93,94,95,96,97,98,99,100,101,102,103,104,105,106,107,108,109,110,111,112,113,114,115,116,117,118,119,120,121,122,123,124,125,126,127,128,129,130,131,132,133,134,135,136,137,138,139,140,141,142,143,144,145,146,147,148,149,150,151,152,153,154,155,156,157,158,159,160,161,162,163,164,165,166,167,168,169,170,171,172,173,174,175,176,177,178,179,180,181,182,183,184,185,186,187,188,189,190,191,192,193,194,195,196,197,198,199,200,201,202,203,204,205,206,207,208,209,210,211,212,213,214,215,216,217,218,219,220,221,222,223,224,225,226,227,228,229,230,231,232,233,234,235,236,237,238,239,240,241,242,243,244,245,246,247,248,249,250,251,252,253,254,255,256,257,258,259,260,261,262,263,264,265,266,267,268,269,270,271,272,273,274,275,276,277,278,279,280,281,282,283,284,285,286,287,288,289,290,291,292,293,294,295,296,297,298,299,300,301,302,303,304,305,306,307,308,309,310,311,312,313,314,315,316,317,318,319,320,321,322,323,324,325,326,327,328,329,330,331,332,333,334,335,336,337,338,339,340,341,342,343,344,345,346,347,348,349,350,351,352,353,354,355,356,357,358,359,360,361,362,363,364,365,366,367,368,369,370,371,372,373,374,375,376,377,378,379,380,381,382,383,384,385,386,387,388,389,390,391,392,393,394,395,396,397,398,399,400,401,402,403,404,405,406,407,408,409,410,411,412,413,414,415,416,417,418,419,420,421,422,423,424,425,426,427,428,429,430,431,432,433,434,435,436,437,438,439,440,441,442,443,444,445,446,447,448,449,450,451,452,453,454,455,456,457,458,459,460,461,462,463,464,465,466,467,468,469,470,471,472,473,474,475,476,477,478,479,480,481,482,483,484,485,486,487,488,489,490,491,492,493,494,495,496,497,498,499,500],"tree_info":[0,0,0,0,0,0,0,0,0,0,0,0,0,0,0,0,0,0,0,0,0,0,0,0,0,0,0,0,0,0,0,0,0,0,0,0,0,0,0,0,0,0,0,0,0,0,0,0,0,0,0,0,0,0,0,0,0,0,0,0,0,0,0,0,0,0,0,0,0,0,0,0,0,0,0,0,0,0,0,0,0,0,0,0,0,0,0,0,0,0,0,0,0,0,0,0,0,0,0,0,0,0,0,0,0,0,0,0,0,0,0,0,0,0,0,0,0,0,0,0,0,0,0,0,0,0,0,0,0,0,0,0,0,0,0,0,0,0,0,0,0,0,0,0,0,0,0,0,0,0,0,0,0,0,0,0,0,0,0,0,0,0,0,0,0,0,0,0,0,0,0,0,0,0,0,0,0,0,0,0,0,0,0,0,0,0,0,0,0,0,0,0,0,0,0,0,0,0,0,0,0,0,0,0,0,0,0,0,0,0,0,0,0,0,0,0,0,0,0,0,0,0,0,0,0,0,0,0,0,0,0,0,0,0,0,0,0,0,0,0,0,0,0,0,0,0,0,0,0,0,0,0,0,0,0,0,0,0,0,0,0,0,0,0,0,0,0,0,0,0,0,0,0,0,0,0,0,0,0,0,0,0,0,0,0,0,0,0,0,0,0,0,0,0,0,0,0,0,0,0,0,0,0,0,0,0,0,0,0,0,0,0,0,0,0,0,0,0,0,0,0,0,0,0,0,0,0,0,0,0,0,0,0,0,0,0,0,0,0,0,0,0,0,0,0,0,0,0,0,0,0,0,0,0,0,0,0,0,0,0,0,0,0,0,0,0,0,0,0,0,0,0,0,0,0,0,0,0,0,0,0,0,0,0,0,0,0,0,0,0,0,0,0,0,0,0,0,0,0,0,0,0,0,0,0,0,0,0,0,0,0,0,0,0,0,0,0,0,0,0,0,0,0,0,0,0,0,0,0,0,0,0,0,0,0,0,0,0,0,0,0,0,0,0,0,0,0,0,0,0,0,0,0,0,0,0,0,0,0,0,0,0,0,0,0,0,0,0,0,0,0,0,0,0,0,0,0,0,0,0,0,0,0,0,0,0,0,0,0,0,0,0,0,0,0,0,0,0,0,0],"trees":[{"base_weights":[-1.5131909E-3,-7.699076E-1,2.3357947E-1,7.4706507E-1,-2.5682718E-2,-1.2549608E0,-2.617814E-1,1.5226922E-2,3.5911743E-3,8.736807E-3,-1.8297619E-3,7.998624E-3,-6.070522E-3,-1.607326E-2,3.384782E-3],"categories":[],"categories_nodes":[],"categories_segments":[],"categories_sizes":[],"default_left":[0,0,0,0,0,0,0,0,0,0,0,0,0,0,0],"id":0,"left_children":[1,5,3,7,9,13,11,-1,-1,-1,-1,-1,-1,-1,-1],"loss_changes":[3.0987097E2,9.9014114E1,1.7486615E2,9.541487E1,7.6346176E1,9.724884E0,3.965975E1,0E0,0E0,0E0,0E0,0E0,0E0,0E0,0E0],"parents":[2147483647,0,0,2,2,1,1,3,3,4,4,6,6,5,5],"right_children":[2,6,4,8,10,14,12,-1,-1,-1,-1,-1,-1,-1,-1],"split_conditions":[-5.439944E-1,7.873067E-3,-5.7142556E-1,-8.4317994E-1,-4.1457748E-1,1.4389788E0,-4.1457748E-1,1.5226922E-2,3.5911743E-3,8.736807E-3,-1.8297619E-3,7.998624E-3,-6.070522E-3,-1.607326E-2,3.384782E-3],"split_indices":[48,8,69,67,9,28,9,0,0,0,0,0,0,0,0],"split_type":[0,0,0,0,0,0,0,0,0,0,0,0,0,0,0],"sum_hessian":[1.7151991E3,4.0179504E2,1.313404E3,4.4061594E2,8.7278815E2,2.0550114E2,1.962939E2,2.175607E2,2.2305525E2,1.2455999E2,7.4822815E2,3.900783E1,1.5728606E2,2.0143758E2,4.0635777E0],"tree_param":{"num_deleted":"0","num_feature":"86","num_nodes":"15","size_leaf_vector":"1"}},{"base_weights":[-3.9139255E-3,6.378304E-1,-1.9786906E-1,-5.5370706E-1,2.9295805E-1,2.1018838E-3,-1.0674996E-2,1.2295827E-2,6.856361E-4,1.008397E0,2.3218818E-1,-4.4469773E-3,7.7271047E-3,4.668016E-3,1.4680157E-2],"categories":[],"categories_nodes":[],"categories_segments":[],"categories_sizes":[],"default_left":[0,0,0,0,0,0,0,0,0,0,0,0,0,0,0],"id":1,"left_children":[1,9,3,5,7,-1,-1,-1,-1,13,11,-1,-1,-1,-1],"loss_changes":[2.1399123E2,5.9952362E1,2.3060002E2,1.6592967E2,9.125214E1,0E0,0E0,0E0,0E0,2.1934326E1,4.3271324E1,0E0,0E0,0E0,0E0],"parents":[2147483647,0,0,2,2,3,3,4,4,1,1,10,10,9,9],"right_children":[2,10,4,6,8,-1,-1,-1,-1,14,12,-1,-1,-1,-1],"split_conditions":[-4.913184E-1,-5.390149E-1,-1.010828E-1,-2.4391612E-2,-7.71414E-1,2.1018838E-3,-1.0674996E-2,1.2295827E-2,6.856361E-4,-7.92838E-1,7.873067E-3,-4.4469773E-3,7.7271047E-3,4.668016E-3,1.4680157E-2],"split_indices":[76,64,71,49,83,0,0,0,0,25,8,0,0,0,0],"split_type":[0,0,0,0,0,0,0,0,0,0,0,0,0,0,0],"sum_hessian":[1.719093E3,3.9893164E2,1.3201614E3,7.653231E2,5.548383E2,2.2484438E2,5.4047876E2,1.4216818E2,4.1267014E2,2.084122E2,1.9051942E2,7.550144E1,1.1501798E2,4.325619E1,1.65156E2],"tree_param":{"num_deleted":"0","num_feature":"86","num_nodes":"15","size_leaf_vector":"1"}},{"base_weights":[3.6630097E-3,9.5770025E-1,-1.9313279E-1,-1.3293899E0,-2.9541897E-2,-3.0527646E-3,4.8833615E-3,2.2447157E-1,1.1120299E0,-2.4964688E-2,9.256708E-3,2.4057738E-2,-1.7092904E-2,4.4653793E-3,1.5382978E-2],"categories":[],"categories_nodes":[],"categories_segments":[],"categories_sizes":[],"default_left":[0,0,0,0,0,0,0,0,0,0,0,0,0,0,0],"id":2,"left_children":[1,7,3,11,5,-1,-1,9,13,-1,-1,-1,-1,-1,-1],"loss_changes":[3.1948642E2,3.2900696E1,2.6220044E2,2.2173462E1,1.1125305E2,0E0,0E0,5.8233147E1,2.1475494E1,0E0,0E0,0E0,0E0,0E0,0E0],"parents":[2147483647,0,0,2,2,4,4,1,1,7,7,3,3,8,8],"right_children":[2,8,4,12,6,-1,-1,10,14,-1,-1,-1,-1,-1,-1],"split_conditions":[-8.3489513E-1,-1.0948786E0,-7.76594E-1,-1.7141987E0,4.0010658E-1,-3.0527646E-3,4.8833615E-3,-1.1688275E0,-7.76594E-1,-2.4964688E-2,9.256708E-3,2.4057738E-2,-1.7092904E-2,4.4653793E-3,1.5382978E-2],"split_indices":[52,82,8,35,8,0,0,8,8,0,0,0,0,0,0],"split_type":[0,0,0,0,0,0,0,0,0,0,0,0,0,0,0],"sum_hessian":[1.7014775E3,2.9091257E2,1.410565E3,1.7745193E2,1.233113E3,8.1618384E2,4.1692923E2,5.0623684E1,2.402889E2,9.499192E0,4.1124493E1,2.0050516E0,1.7544688E2,3.2679703E1,2.0760919E2],"tree_param":{"num_deleted":"0","num_feature":"86","num_nodes":"15","size_leaf_vector":"1"}},{"base_weights":[-2.9098112E-3,8.641625E-1,-2.0602067E-1,1.6687669E0,4.104106E-1,-6.2899888E-3,1.3873075E-2,1.4308159E-1,-4.4508108E-1,-8.130437E-4,-1.0039109E-2,6.969813E-4,1.1074283E-2,2.1655431E-2,1.3376889E-2],"categories":[],"categories_nodes":[],"categories_segments":[],"categories_sizes":[],"default_left":[0,0,0,0,0,0,0,0,0,0,0,0,0,0,0],"id":3,"left_children":[1,3,7,13,5,-1,-1,11,9,-1,-1,-1,-1,-1,-1],"loss_changes":[2.9868076E2,1.1744983E2,1.1468568E2,4.263855E0,1.3163017E2,0E0,0E0,3.6223648E1,1.1097493E2,0E0,0E0,0E0,0E0,0E0,0E0],"parents":[2147483647,0,0,1,1,4,4,2,2,8,8,7,7,3,3],"right_children":[2,4,8,14,6,-1,-1,12,10,-1,-1,-1,-1,-1,-1],"split_conditions":[-8.00963E-1,-8.849387E-1,-1.771887E-1,2.3866675E0,-3.8436046E-1,-6.2899888E-3,1.3873075E-2,1.829395E0,1.3479313E-1,-8.130437E-4,-1.0039109E-2,6.969813E-4,1.1074283E-2,2.1655431E-2,1.3376889E-2],"split_indices":[52,49,30,57,8,0,0,10,76,0,0,0,0,0,0],"split_type":[0,0,0,0,0,0,0,0,0,0,0,0,0,0,0],"sum_hessian":[1.6958422E3,3.2180228E2,1.3740399E3,1.159605E2,2.0584178E2,8.926088E1,1.1658091E2,5.5848444E2,8.155555E2,3.9568076E2,4.1987473E2,4.998209E2,5.8663536E1,1.0467302E2,1.1287479E1],"tree_param":{"num_deleted":"0","num_feature":"86","num_nodes":"15","size_leaf_vector":"1"}},{"base_weights":[1.1179425E-2,9.686982E-1,-2.91061E-1,-9.108113E-1,-1.15474105E-1,3.542423E-3,-7.006028E-3,1.6440923E0,6.453649E-1,-1.1407665E-2,1.3049729E-2,-8.78735E-4,-1.4484063E-2,2.101696E-2,5.977938E-3],"categories":[],"categories_nodes":[],"categories_segments":[],"categories_sizes":[],"default_left":[0,0,0,0,0,0,0,0,0,0,0,0,0,0,0],"id":4,"left_children":[1,7,3,11,5,-1,-1,13,9,-1,-1,-1,-1,-1,-1],"loss_changes":[4.9134943E2,8.8858826E1,1.4041394E2,5.9347427E1,1.7851837E2,0E0,0E0,5.652252E0,1.7122781E2,0E0,0E0,0E0,0E0,0E0,0E0],"parents":[2147483647,0,0,2,2,4,4,1,1,8,8,3,3,7,7],"right_children":[2,8,4,12,6,-1,-1,14,10,-1,-1,-1,-1,-1,-1],"split_conditions":[-4.5466515E-1,-8.849387E-1,-6.7439425E-1,-4.7922203E-1,1.3479313E-1,3.542423E-3,-7.006028E-3,1.9420693E0,-7.76594E-1,-1.1407665E-2,1.3049729E-2,-8.78735E-4,-1.4484063E-2,2.101696E-2,5.977938E-3],"split_indices":[49,49,2,7,76,0,0,3,8,0,0,0,0,0,0],"split_type":[0,0,0,0,0,0,0,0,0,0,0,0,0,0,0],"sum_hessian":[1.6976509E3,4.0726364E2,1.2903872E3,2.8480112E2,1.0055862E3,5.302914E2,4.752948E2,1.317427E2,2.7552094E2,5.6108284E1,2.1941266E2,6.4897865E1,2.1990324E2,1.2762446E2,4.118251E0],"tree_param":{"num_deleted":"0","num_feature":"86","num_nodes":"15","size_leaf_vector":"1"}},{"base_weights":[8.22785E-3,8.7058246E-1,-1.8985347E-1,1.7020814E-1,-4.8271233E-1,-1.8578595E-2,-3.957657E-3,-1.0773023E-2,3.363418E-3,5.417017E-1,1.1976725E0,-2.1876384E-2,8.993964E-3,-1.8805763E-2,1.5531811E-2],"categories":[],"categories_nodes":[],"categories_segments":[],"categories_sizes":[],"default_left":[0,0,0,0,0,0,0,0,0,0,0,0,0,0,0],"id":5,"left_children":[1,9,3,7,5,-1,-1,-1,-1,11,13,-1,-1,-1,-1],"loss_changes":[2.906268E2,3.4127747E1,1.4590158E2,6.333911E1,1.271429E2,0E0,0E0,0E0,0E0,6.473017E1,1.9452072E1,0E0,0E0,0E0,0E0],"parents":[2147483647,0,0,2,2,4,4,3,3,1,1,9,9,10,10],"right_children":[2,10,4,8,6,-1,-1,-1,-1,12,14,-1,-1,-1,-1],"split_conditions":[-8.00963E-1,-3.9871275E-1,-6.8310085E-3,-7.76594E-1,-7.76594E-1,-1.8578595E-2,-3.957657E-3,-1.0773023E-2,3.363418E-3,-1.1688275E0,-1.3248838E0,-2.1876384E-2,8.993964E-3,-1.8805763E-2,1.5531811E-2],"split_indices":[52,5,7,8,8,0,0,0,0,8,50,0,0,0,0],"split_type":[0,0,0,0,0,0,0,0,0,0,0,0,0,0,0],"sum_hessian":[1.7012247E3,3.1773328E2,1.3834915E3,6.205517E2,7.6293976E2,1.0825E2,6.5468976E2,5.419212E1,5.6635956E2,1.5854329E2,1.5918997E2,1.1364233E1,1.4717906E2,2.5576231E0,1.5663234E2],"tree_param":{"num_deleted":"0","num_feature":"86","num_nodes":"15","size_leaf_vector":"1"}},{"base_weights":[-1.1579676E-2,9.5505154E-1,-1.9718277E-1,-7.6330024E-1,4.1728686E-3,4.5735952E-3,-2.9920598E-3,-2.4464358E-2,-8.219409E-3,1.1437137E0,4.8875445E-1,2.0337593E-2,7.710825E-3,-4.1850638E-3,1.5008636E-2],"categories":[],"categories_nodes":[],"categories_segments":[],"categories_sizes":[],"default_left":[0,0,0,0,0,0,0,0,0,0,0,0,0,0,0],"id":6,"left_children":[1,9,3,7,5,-1,-1,-1,-1,11,13,-1,-1,-1,-1],"loss_changes":[3.065692E2,2.4161697E1,1.6341544E2,4.7368927E1,9.316395E1,0E0,0E0,0E0,0E0,4.9789246E1,4.6606617E1,0E0,0E0,0E0,0E0],"parents":[2147483647,0,0,2,2,4,4,3,3,1,1,9,9,10,10],"right_children":[2,10,4,8,6,-1,-1,-1,-1,12,14,-1,-1,-1,-1],"split_conditions":[-8.4317994E-1,-5.902423E-1,-5.439944E-1,-1.3248838E0,-1.6912939E-1,4.5735952E-3,-2.9920598E-3,-2.4464358E-2,-8.219409E-3,-8.849387E-1,-3.8436046E-1,2.0337593E-2,7.710825E-3,-4.1850638E-3,1.5008636E-2],"split_indices":[67,55,48,50,30,0,0,0,0,49,8,0,0,0,0],"split_type":[0,0,0,0,0,0,0,0,0,0,0,0,0,0,0],"sum_hessian":[1.7086355E3,2.7517252E2,1.433463E3,3.7603818E2,1.0574248E3,4.2547473E2,6.3195013E2,3.0484737E1,3.4555344E2,1.9582033E2,7.9352196E1,1.02042625E2,9.37777E1,3.680654E1,4.2545654E1],"tree_param":{"num_deleted":"0","num_feature":"86","num_nodes":"15","size_leaf_vector":"1"}},{"base_weights":[5.756119E-3,6.020829E-1,-2.8550607E-1,-1.0532798E0,-1.5345165E-1,-3.1708013E-3,6.814839E-3,1.0020404E0,4.1284162E-1,-1.678977E-3,9.811756E-3,-1.4838575E-2,2.6135833E-3,4.044877E-3,1.4555718E-2],"categories":[],"categories_nodes":[],"categories_segments":[],"categories_sizes":[],"default_left":[0,0,0,0,0,0,0,0,0,0,0,0,0,0,0],"id":7,"left_children":[1,7,3,11,5,-1,-1,13,9,-1,-1,-1,-1,-1,-1],"loss_changes":[2.950877E2,4.2157272E1,1.1570762E2,2.8316284E1,6.8201904E1,0E0,0E0,1.9686584E1,7.70922E1,0E0,0E0,0E0,0E0,0E0,0E0],"parents":[2147483647,0,0,2,2,4,4,1,1,8,8,3,3,7,7],"right_children":[2,8,4,12,6,-1,-1,14,10,-1,-1,-1,-1,-1,-1],"split_conditions":[-5.390149E-1,-8.6242425E-1,-3.5806713E-1,1.291208E0,7.327018E-1,-3.1708013E-3,6.814839E-3,-8.6906385E-1,1.5222783E-3,-1.678977E-3,9.811756E-3,-1.4838575E-2,2.6135833E-3,4.044877E-3,1.4555718E-2],"split_indices":[64,68,50,29,10,0,0,18,48,0,0,0,0,0,0],"split_type":[0,0,0,0,0,0,0,0,0,0,0,0,0,0,0],"sum_hessian":[1.6987953E3,5.574397E2,1.1413556E3,1.6741492E2,9.739407E2,8.5181415E2,1.2212648E2,1.7892513E2,3.7851456E2,1.532287E2,2.2528587E2,1.5137877E2,1.6036154E1,3.461152E1,1.4431361E2],"tree_param":{"num_deleted":"0","num_feature":"86","num_nodes":"15","size_leaf_vector":"1"}},{"base_weights":[-8.813786E-3,7.7456045E-1,-2.1264832E-1,-1.0065383E0,-5.4268308E-2,1.5648723E0,3.5736182E-1,3.7625853E-3,-3.6316335E-3,-3.1679117E-3,8.372201E-3,-9.862543E-4,-1.4847119E-2,2.131295E-2,1.1931162E-2],"categories":[],"categories_nodes":[],"categories_segments":[],"categories_sizes":[],"default_left":[0,0,0,0,0,0,0,0,0,0,0,0,0,0,0],"id":8,"left_children":[1,5,3,11,7,13,9,-1,-1,-1,-1,-1,-1,-1,-1],"loss_changes":[2.7136398E2,1.156402E2,1.6955301E2,3.76904E1,9.438344E1,1.0229126E1,4.385869E1,0E0,0E0,0E0,0E0,0E0,0E0,0E0,0E0],"parents":[2147483647,0,0,2,2,1,1,4,4,6,6,3,3,5,5],"right_children":[2,6,4,12,8,14,10,-1,-1,-1,-1,-1,-1,-1,-1],"split_conditions":[-7.621654E-1,-8.849387E-1,-3.5806713E-1,-4.4110563E-1,-1.779448E-1,2.4638036E-1,-3.5806713E-1,3.7625853E-3,-3.6316335E-3,-3.1679117E-3,8.372201E-3,-9.862543E-4,-1.4847119E-2,2.131295E-2,1.1931162E-2],"split_indices":[67,49,50,30,30,25,50,0,0,0,0,0,0,0,0],"split_type":[0,0,0,0,0,0,0,0,0,0,0,0,0,0,0],"sum_hessian":[1.6993043E3,3.508146E2,1.3484897E3,2.2420428E2,1.1242855E3,1.21129974E2,2.2968463E2,4.490252E2,6.7526025E2,7.772353E1,1.5196109E2,3.6666912E1,1.8753737E2,9.838959E1,2.2740385E1],"tree_param":{"num_deleted":"0","num_feature":"86","num_nodes":"15","size_leaf_vector":"1"}},{"base_weights":[-1.8660972E-2,7.4195975E-1,-2.0959839E-1,-6.313138E-1,-8.036569E-2,3.1915975E-3,-5.7205274E-3,1.3773988E-3,-1.1669609E-2,8.530021E-2,9.364239E-1,1.1095083E-2,-4.568395E-3,1.2622354E-2,-2.8978174E-3],"categories":[],"categories_nodes":[],"categories_segments":[],"categories_sizes":[],"default_left":[0,0,0,0,0,0,0,0,0,0,0,0,0,0,0],"id":9,"left_children":[1,9,3,7,5,-1,-1,-1,-1,11,13,-1,-1,-1,-1],"loss_changes":[2.4932748E2,4.397664E1,7.47814E1,7.215175E1,1.3305615E2,0E0,0E0,0E0,0E0,2.8525724E1,2.2800323E1,0E0,0E0,0E0,0E0],"parents":[2147483647,0,0,2,2,4,4,3,3,1,1,9,9,10,10],"right_children":[2,10,4,8,6,-1,-1,-1,-1,12,14,-1,-1,-1,-1],"split_conditions":[-7.9861933E-1,-8.304001E-1,-6.7439425E-1,-4.1457748E-1,4.0588194E-1,3.1915975E-3,-5.7205274E-3,1.3773988E-3,-1.1669609E-2,-9.7943157E-1,-7.020318E-1,1.1095083E-2,-4.568395E-3,1.2622354E-2,-2.8978174E-3],"split_indices":[53,25,2,9,49,0,0,0,0,67,64,0,0,0,0],"split_type":[0,0,0,0,0,0,0,0,0,0,0,0,0,0,0],"sum_hessian":[1.71663E3,3.4440433E2,1.3722257E3,3.2179434E2,1.0504313E3,5.5585254E2,4.9457874E2,9.3194145E1,2.286002E2,7.872155E1,2.6568277E2,2.8296978E1,5.0424576E1,2.4999881E2,1.5683953E1],"tree_param":{"num_deleted":"0","num_feature":"86","num_nodes":"15","size_leaf_vector":"1"}},{"base_weights":[-1.1590196E-2,5.7287467E-1,-2.976195E-1,-5.728855E-1,4.674396E-2,-8.655706E-3,6.1777146E-3,-4.9328012E-3,3.024076E-3,8.2022816E-1,2.6699272E-1,-1.4810561E-2,4.4413693E-3,3.200028E-4,1.1743034E-2],"categories":[],"categories_nodes":[],"categories_segments":[],"categories_sizes":[],"default_left":[0,0,0,0,0,0,0,0,0,0,0,0,0,0,0],"id":10,"left_children":[1,9,3,5,7,-1,-1,-1,-1,13,11,-1,-1,-1,-1],"loss_changes":[2.8413058E2,4.223015E1,1.0817751E2,8.095064E1,4.368401E1,0E0,0E0,0E0,0E0,2.9237823E1,3.205844E1,0E0,0E0,0E0,0E0],"parents":[2147483647,0,0,2,2,3,3,4,4,1,1,10,10,9,9],"right_children":[2,10,4,6,8,-1,-1,-1,-1,14,12,-1,-1,-1,-1],"split_conditions":[-5.390149E-1,-7.8354025E-1,-1.5580332E-1,1.291208E0,-5.0783837E-1,-8.655706E-3,6.1777146E-3,-4.9328012E-3,3.024076E-3,-1.1532855E0,-1.8021531E0,-1.4810561E-2,4.4413693E-3,3.200028E-4,1.1743034E-2],"split_indices":[64,64,71,29,82,0,0,0,0,0,20,0,0,0,0],"split_type":[0,0,0,0,0,0,0,0,0,0,0,0,0,0,0],"sum_hessian":[1.6994656E3,5.5838275E2,1.1410828E3,6.3414667E2,5.0693616E2,5.702784E2,6.386828E1,1.5540569E2,3.515305E2,3.086458E2,2.4973692E2,1.4262351E1,2.3547456E2,4.028294E1,2.6836288E2],"tree_param":{"num_deleted":"0","num_feature":"86","num_nodes":"15","size_leaf_vector":"1"}},{"base_weights":[1.3852866E-2,5.03555E-1,-2.0734756E-1,-9.9886745E-1,-6.5820225E-2,-1.8879673E0,5.8697194E-1,3.5754205E-3,-4.3889685E-3,4.7339154E-3,1.2779826E-2,-7.753583E-3,-1.6951242E-2,-2.437829E-2,-1.8361447E-2],"categories":[],"categories_nodes":[],"categories_segments":[],"categories_sizes":[],"default_left":[0,0,0,0,0,0,0,0,0,0,0,0,0,0,0],"id":11,"left_children":[1,5,3,11,7,13,9,-1,-1,-1,-1,-1,-1,-1,-1],"loss_changes":[1.8424408E2,1.0565662E2,1.3123663E2,2.3956665E1,9.978906E1,2.2661209E-1,4.6340805E1,0E0,0E0,0E0,0E0,0E0,0E0,0E0,0E0],"parents":[2147483647,0,0,2,2,1,1,4,4,6,6,3,3,5,5],"right_children":[2,6,4,12,8,14,10,-1,-1,-1,-1,-1,-1,-1,-1],"split_conditions":[-5.6592834E-1,-1.3248838E0,-3.5806713E-1,-6.8310085E-3,-6.8310085E-3,1.234247E-3,2.4857463E-1,3.5754205E-3,-4.3889685E-3,4.7339154E-3,1.2779826E-2,-7.753583E-3,-1.6951242E-2,-2.437829E-2,-1.8361447E-2],"split_indices":[68,50,50,7,7,18,29,0,0,0,0,0,0,0,0],"split_type":[0,0,0,0,0,0,0,0,0,0,0,0,0,0,0],"sum_hessian":[1.7007208E3,5.291651E2,1.1715558E3,1.7762836E2,9.9392737E2,1.777725E1,5.1138788E2,4.4504123E2,5.4888617E2,3.4603564E2,1.6535223E2,8.634698E1,9.128138E1,1.5221235E1,2.556015E0],"tree_param":{"num_deleted":"0","num_feature":"86","num_nodes":"15","size_leaf_vector":"1"}},{"base_weights":[-9.000211E-3,8.6544394E-1,-2.8642604E-1,-3.942122E-1,4.651447E-1,-1.3969754E-3,-9.260574E-3,1.0715157E-2,1.0021983E0,2.1639135E-2,-8.711509E-3,7.3757456E-3,-1.1803081E-2,1.6420154E-2,1.0464141E-2],"categories":[],"categories_nodes":[],"categories_segments":[],"categories_sizes":[],"default_left":[0,0,0,0,0,0,0,0,0,0,0,0,0,0,0],"id":12,"left_children":[1,7,3,5,11,-1,-1,9,13,-1,-1,-1,-1,-1,-1],"loss_changes":[4.1266028E2,4.7880768E1,1.046252E2,1.1056955E2,2.856078E1,0E0,0E0,6.899434E1,1.8057587E1,0E0,0E0,0E0,0E0,0E0,0E0],"parents":[2147483647,0,0,2,2,3,3,1,1,7,7,4,4,8,8],"right_children":[2,8,4,6,12,-1,-1,10,14,-1,-1,-1,-1,-1,-1],"split_conditions":[-4.5466515E-1,-1.0948786E0,7.327018E-1,4.0588194E-1,3.0809052E0,-1.3969754E-3,-9.260574E-3,-8.849387E-1,-9.315594E-1,2.1639135E-2,-8.711509E-3,7.3757456E-3,-1.1803081E-2,1.6420154E-2,1.0464141E-2],"split_indices":[49,82,10,49,66,0,0,49,67,0,0,0,0,0,0],"split_type":[0,0,0,0,0,0,0,0,0,0,0,0,0,0,0],"sum_hessian":[1.7008975E3,4.0961383E2,1.2912836E3,1.1293612E3,1.6192235E2,6.223547E2,5.0700656E2,5.651523E1,3.530986E2,1.6441317E1,4.0073914E1,1.4878423E2,1.3138119E1,1.2212705E2,2.3097154E2],"tree_param":{"num_deleted":"0","num_feature":"86","num_nodes":"15","size_leaf_vector":"1"}},{"base_weights":[-6.7749666E-3,8.3738667E-1,-2.7209282E-1,-3.9328733E-1,6.436031E-1,-1.2573011E-2,-1.7612629E-3,-7.509739E-3,1.1401318E-2,4.5917413E-1,1.1440241E0,-5.2796598E-3,1.0011013E-2,2.042531E-2,1.1116749E-2],"categories":[],"categories_nodes":[],"categories_segments":[],"categories_sizes":[],"default_left":[0,0,0,0,0,0,0,0,0,0,0,0,0,0,0],"id":13,"left_children":[1,9,3,5,7,-1,-1,-1,-1,11,13,-1,-1,-1,-1],"loss_changes":[3.810672E2,4.7136353E1,1.436842E2,1.7673625E2,5.060741E1,0E0,0E0,0E0,0E0,5.4945347E1,2.7907196E1,0E0,0E0,0E0,0E0],"parents":[2147483647,0,0,2,2,3,3,4,4,1,1,9,9,10,10],"right_children":[2,10,4,6,8,-1,-1,-1,-1,12,14,-1,-1,-1,-1],"split_conditions":[-4.5466515E-1,-1.5689392E-1,1.0981277E0,-3.8436046E-1,-8.554415E-1,-1.2573011E-2,-1.7612629E-3,-7.509739E-3,1.1401318E-2,-7.76594E-1,-8.849387E-1,-5.2796598E-3,1.0011013E-2,2.042531E-2,1.1116749E-2],"split_indices":[49,29,29,8,25,0,0,0,0,8,49,0,0,0,0],"split_type":[0,0,0,0,0,0,0,0,0,0,0,0,0,0,0],"sum_hessian":[1.7012738E3,4.0679303E2,1.2944807E3,1.1432228E3,1.51258E2,3.335147E2,8.09708E2,2.682401E1,1.2443398E2,1.8223334E2,2.245597E2,5.0895466E1,1.3133788E2,7.665055E1,1.4790913E2],"tree_param":{"num_deleted":"0","num_feature":"86","num_nodes":"15","size_leaf_vector":"1"}},{"base_weights":[1.2515751E-2,8.5244864E-1,-2.5573283E-1,-3.7073925E-1,5.414426E-1,-1.0331629E-2,-2.7642509E-3,1.18467E0,5.240689E-1,-9.028612E-3,8.673342E-3,1.9681288E-2,8.79735E-3,9.594384E-3,-5.469223E-3],"categories":[],"categories_nodes":[],"categories_segments":[],"categories_sizes":[],"default_left":[0,0,0,0,0,0,0,0,0,0,0,0,0,0,0],"id":14,"left_children":[1,7,3,5,13,-1,-1,11,9,-1,-1,-1,-1,-1,-1],"loss_changes":[3.7992807E2,4.4471954E1,1.1718626E2,7.614111E1,3.570098E1,0E0,0E0,3.7924988E1,4.3511147E1,0E0,0E0,0E0,0E0,0E0,0E0],"parents":[2147483647,0,0,2,2,3,3,1,1,8,8,7,7,4,4],"right_children":[2,8,4,6,14,-1,-1,12,10,-1,-1,-1,-1,-1,-1],"split_conditions":[-4.5466515E-1,-7.8368396E-1,7.327018E-1,-6.7439425E-1,2.1269763E0,-1.0331629E-2,-2.7642509E-3,-8.849387E-1,-1.118933E0,-9.028612E-3,8.673342E-3,1.9681288E-2,8.79735E-3,9.594384E-3,-5.469223E-3],"split_indices":[49,66,10,2,49,0,0,49,82,0,0,0,0,0,0],"split_type":[0,0,0,0,0,0,0,0,0,0,0,0,0,0,0],"sum_hessian":[1.6860735E3,4.080996E2,1.2779739E3,1.1168914E3,1.6108252E2,2.7590186E2,8.409895E2,2.027551E2,2.0534451E2,2.458691E1,1.8075761E2,1.1187555E2,9.0879555E1,1.3087746E2,3.0205061E1],"tree_param":{"num_deleted":"0","num_feature":"86","num_nodes":"15","size_leaf_vector":"1"}},{"base_weights":[-1.9377181E-2,-7.136169E-1,1.9604568E-1,7.696502E-1,-5.542964E-2,-9.52047E-3,2.6994285E-3,-9.060392E-1,2.0133327E-1,1.60476E-3,1.2722939E-2,-5.362661E-3,1.3101666E-2,-1.364058E-2,-5.263992E-3],"categories":[],"categories_nodes":[],"categories_segments":[],"categories_sizes":[],"default_left":[0,0,0,0,0,0,0,0,0,0,0,0,0,0,0],"id":15,"left_children":[1,7,3,9,5,-1,-1,13,11,-1,-1,-1,-1,-1,-1],"loss_changes":[2.5530629E2,7.119299E1,1.8793565E2,6.3182297E1,1.7361494E2,0E0,0E0,2.9956207E1,3.7565247E1,0E0,0E0,0E0,0E0,0E0,0E0],"parents":[2147483647,0,0,2,2,4,4,1,1,3,3,8,8,7,7],"right_children":[2,8,4,10,6,-1,-1,14,12,-1,-1,-1,-1,-1,-1],"split_conditions":[-5.439944E-1,8.567774E-1,-6.5796345E-1,-7.552759E-1,-3.8436046E-1,-9.52047E-3,2.6994285E-3,1.2117334E-1,-3.499387E-1,1.60476E-3,1.2722939E-2,-5.362661E-3,1.3101666E-2,-1.364058E-2,-5.263992E-3],"split_indices":[48,29,52,25,8,0,0,25,18,0,0,0,0,0,0],"split_type":[0,0,0,0,0,0,0,0,0,0,0,0,0,0,0],"sum_hessian":[1.7069362E3,4.0419522E2,1.302741E3,3.970208E2,9.0572015E2,2.5140009E2,6.5432007E2,3.3396655E2,7.022868E1,1.1082013E2,2.8620068E2,4.027721E1,2.9951475E1,2.4158797E2,9.237857E1],"tree_param":{"num_deleted":"0","num_feature":"86","num_nodes":"15","size_leaf_vector":"1"}},{"base_weights":[8.811894E-3,5.7589525E-1,-1.5229668E-1,-7.6945746E-1,9.8974206E-2,-4.9523503E-1,7.745973E-1,2.1557964E-3,-9.844243E-3,-1.542209E-2,-5.7729273E-3,1.4609793E-2,4.984824E-3,1.50444275E-2,-8.504867E-3],"categories":[],"categories_nodes":[],"categories_segments":[],"categories_sizes":[],"default_left":[0,0,0,0,0,0,0,0,0,0,0,0,0,0,0],"id":16,"left_children":[1,5,3,9,7,13,11,-1,-1,-1,-1,-1,-1,-1,-1],"loss_changes":[1.5603206E2,8.045165E1,2.0625372E2,5.491179E1,6.1586815E1,1.8669695E1,4.7176056E1,0E0,0E0,0E0,0E0,0E0,0E0,0E0,0E0],"parents":[2147483647,0,0,2,2,1,1,4,4,3,3,6,6,5,5],"right_children":[2,6,4,10,8,14,12,-1,-1,-1,-1,-1,-1,-1,-1],"split_conditions":[-7.0415115E-1,-5.439944E-1,-3.8436046E-1,1.5222783E-3,1.5895936E0,-9.092045E-1,-8.984171E-1,2.1557964E-3,-9.844243E-3,-1.542209E-2,-5.7729273E-3,1.4609793E-2,4.984824E-3,1.50444275E-2,-8.504867E-3],"split_indices":[69,48,8,48,47,35,67,0,0,0,0,0,0,0,0],"split_type":[0,0,0,0,0,0,0,0,0,0,0,0,0,0,0],"sum_hessian":[1.7076663E3,3.777771E2,1.3298892E3,3.8475003E2,9.4513916E2,5.9091507E1,3.1868558E2,8.728506E2,7.2288536E1,1.5322743E2,2.315226E2,1.5545381E2,1.6323177E2,5.763045E0,5.332846E1],"tree_param":{"num_deleted":"0","num_feature":"86","num_nodes":"15","size_leaf_vector":"1"}},{"base_weights":[1.783302E-2,-5.1501125E-1,2.5886196E-1,1.5434151E0,-7.385997E-1,1.1276225E0,4.707488E-2,-9.641851E-3,2.4668758E-3,-1.3062768E-2,-3.5522224E-3,8.290015E-3,1.5398084E-2,2.1740543E-2,1.0640755E-2],"categories":[],"categories_nodes":[],"categories_segments":[],"categories_sizes":[],"default_left":[0,0,0,0,0,0,0,0,0,0,0,0,0,0,0],"id":17,"left_children":[1,3,5,13,9,11,7,-1,-1,-1,-1,-1,-1,-1,-1],"loss_changes":[2.1883583E2,2.443296E2,2.1585442E2,6.9219666E0,6.6633026E1,1.1056213E1,1.16031204E2,0E0,0E0,0E0,0E0,0E0,0E0,0E0,0E0],"parents":[2147483647,0,0,1,1,2,2,6,6,4,4,5,5,3,3],"right_children":[2,4,6,14,10,12,8,-1,-1,-1,-1,-1,-1,-1,-1],"split_conditions":[-3.8436046E-1,-8.849387E-1,-7.1429324E-1,1.3348162E-1,-9.378196E-4,-1.8454316E-1,-3.5806713E-1,-9.641851E-3,2.4668758E-3,-1.3062768E-2,-3.5522224E-3,8.290015E-3,1.5398084E-2,2.1740543E-2,1.0640755E-2],"split_indices":[8,49,67,59,50,71,50,0,0,0,0,0,0,0,0],"split_type":[0,0,0,0,0,0,0,0,0,0,0,0,0,0,0],"sum_hessian":[1.703776E3,5.3061957E2,1.1731564E3,5.1942547E1,4.7867703E2,2.2986806E2,9.432883E2,1.462781E2,7.9701025E2,2.8582767E2,1.9284935E2,4.2245064E1,1.87623E2,4.039074E1,1.1551806E1],"tree_param":{"num_deleted":"0","num_feature":"86","num_nodes":"15","size_leaf_vector":"1"}},{"base_weights":[9.106618E-3,5.93857E-1,-3.9049265E-1,4.991892E-2,-8.3564407E-1,1.4772413E0,3.8558012E-1,-4.0771607E-3,8.483314E-3,-8.051488E-3,3.1245302E-3,-1.6374124E-2,-8.0229975E-3,1.9829256E-2,1.2292667E-2],"categories":[],"categories_nodes":[],"categories_segments":[],"categories_sizes":[],"default_left":[0,0,0,0,0,0,0,0,0,0,0,0,0,0,0],"id":18,"left_children":[1,5,3,9,11,13,7,-1,-1,-1,-1,-1,-1,-1,-1],"loss_changes":[3.9479803E2,1.2614183E2,1.9678021E2,7.0066444E1,4.580664E1,6.9138184E0,1.15824005E2,0E0,0E0,0E0,0E0,0E0,0E0,0E0,0E0],"parents":[2147483647,0,0,2,2,1,1,6,6,3,3,4,4,5,5],"right_children":[2,6,4,10,12,14,8,-1,-1,-1,-1,-1,-1,-1,-1],"split_conditions":[-2.4391612E-2,-8.849387E-1,1.3479313E-1,-3.8436046E-1,-3.5806713E-1,2.4638036E-1,-7.552759E-1,-4.0771607E-3,8.483314E-3,-8.051488E-3,3.1245302E-3,-1.6374124E-2,-8.0229975E-3,1.9829256E-2,1.2292667E-2],"split_indices":[49,49,76,8,50,25,25,0,0,0,0,0,0,0,0],"split_type":[0,0,0,0,0,0,0,0,0,0,0,0,0,0,0],"sum_hessian":[1.6894268E3,6.8581836E2,1.0036084E3,5.045171E2,4.990913E2,1.307523E2,5.5506604E2,1.618896E2,3.9317642E2,1.12836876E2,3.916802E2,1.4464334E2,3.5444797E2,1.06944435E2,2.3807865E1],"tree_param":{"num_deleted":"0","num_feature":"86","num_nodes":"15","size_leaf_vector":"1"}},{"base_weights":[6.6913897E-3,8.215334E-1,-2.4878433E-1,1.3511316E-1,-6.18909E-1,-1.0224574E-2,1.1069204E-3,2.2410173E-2,9.740797E-1,1.5429214E-2,1.0144011E-3,2.2314709E-2,-3.6790331E-3,1.3501249E-2,6.6208984E-3],"categories":[],"categories_nodes":[],"categories_segments":[],"categories_sizes":[],"default_left":[0,0,0,0,0,0,0,0,0,0,0,0,0,0,0],"id":19,"left_children":[1,7,3,9,5,-1,-1,11,13,-1,-1,-1,-1,-1,-1],"loss_changes":[3.5470303E2,4.9570984E1,1.8432413E2,3.7755795E1,9.301863E1,0E0,0E0,3.6494965E1,1.6036926E1,0E0,0E0,0E0,0E0,0E0,0E0],"parents":[2147483647,0,0,2,2,4,4,1,1,3,3,7,7,8,8],"right_children":[2,8,4,10,6,-1,-1,12,14,-1,-1,-1,-1,-1,-1],"split_conditions":[-4.5466515E-1,-1.0481145E0,1.3479313E-1,-1.5789376E0,6.7459685E-1,-1.0224574E-2,1.1069204E-3,-1.392201E0,7.6255846E-1,1.5429214E-2,1.0144011E-3,2.2314709E-2,-3.6790331E-3,1.3501249E-2,6.6208984E-3],"split_indices":[49,11,76,16,29,0,0,35,16,0,0,0,0,0,0],"split_type":[0,0,0,0,0,0,0,0,0,0,0,0,0,0,0],"sum_hessian":[1.7037234E3,4.0662973E2,1.2970936E3,6.367162E2,6.603775E2,5.153669E2,1.4501062E2,6.5200554E1,3.4142917E2,2.9710546E1,6.070056E2,9.8799715E0,5.532058E1,2.7556583E2,6.586333E1],"tree_param":{"num_deleted":"0","num_feature":"86","num_nodes":"15","size_leaf_vector":"1"}},{"base_weights":[8.167612E-3,-6.4930135E-1,2.0997345E-1,1.4751352E0,7.306482E-2,-1.3438061E-2,3.300586E-3,-1.1179103E0,-1.8694118E-1,1.101762E-2,-4.1753673E-3,-3.7347823E-3,-1.5373485E-2,1.4900823E-2,2.0681534E-2],"categories":[],"categories_nodes":[],"categories_segments":[],"categories_sizes":[],"default_left":[0,0,0,0,0,0,0,0,0,0,0,0,0,0,0],"id":20,"left_children":[1,7,3,13,5,-1,-1,11,9,-1,-1,-1,-1,-1,-1],"loss_changes":[2.2566246E2,8.652075E1,2.2539438E2,6.2844543E0,2.5752054E2,0E0,0E0,1.815512E1,3.1629368E1,0E0,0E0,0E0,0E0,0E0,0E0],"parents":[2147483647,0,0,2,2,4,4,1,1,8,8,7,7,3,3],"right_children":[2,8,4,14,6,-1,-1,12,10,-1,-1,-1,-1,-1,-1],"split_conditions":[-5.439944E-1,7.873067E-3,-8.849387E-1,-4.913184E-1,-7.76594E-1,-1.3438061E-2,3.300586E-3,-4.5466515E-1,-1.0001409E0,1.101762E-2,-4.1753673E-3,-3.7347823E-3,-1.5373485E-2,1.4900823E-2,2.0681534E-2],"split_indices":[48,8,49,76,8,0,0,49,16,0,0,0,0,0,0],"split_type":[0,0,0,0,0,0,0,0,0,0,0,0,0,0,0],"sum_hessian":[1.7006544E3,3.9936203E2,1.3012925E3,1.2699077E2,1.1743016E3,1.6742467E2,1.006877E3,1.9828043E2,2.010816E2,2.428307E1,1.7679852E2,2.3884365E1,1.7439606E2,4.94992E1,7.749157E1],"tree_param":{"num_deleted":"0","num_feature":"86","num_nodes":"15","size_leaf_vector":"1"}},{"base_weights":[1.2101977E-3,8.0971277E-1,-2.4937086E-1,1.2627672E-1,-6.22076E-1,-3.3763293E-3,-1.1049058E-2,5.283038E-3,-1.9501223E-3,1.8297294E-1,9.8587537E-1,-2.3921963E-2,6.8433657E-3,-1.2569966E-3,1.3707727E-2],"categories":[],"categories_nodes":[],"categories_segments":[],"categories_sizes":[],"default_left":[0,0,0,0,0,0,0,0,0,0,0,0,0,0,0],"id":21,"left_children":[1,9,3,7,5,-1,-1,-1,-1,11,13,-1,-1,-1,-1],"loss_changes":[3.4312735E2,4.422223E1,1.810249E2,5.388149E1,5.9790283E1,0E0,0E0,0E0,0E0,6.7343094E1,3.76463E1,0E0,0E0,0E0,0E0],"parents":[2147483647,0,0,2,2,4,4,3,3,1,1,9,9,10,10],"right_children":[2,10,4,8,6,-1,-1,-1,-1,12,14,-1,-1,-1,-1],"split_conditions":[-4.5466515E-1,-9.54868E-1,1.3479313E-1,-5.9021253E-2,-1.771887E-1,-3.3763293E-3,-1.1049058E-2,5.283038E-3,-1.9501223E-3,-1.1688275E0,-7.76594E-1,-2.3921963E-2,6.8433657E-3,-1.2569966E-3,1.3707727E-2],"split_indices":[49,26,76,30,30,0,0,0,0,8,8,0,0,0,0],"split_type":[0,0,0,0,0,0,0,0,0,0,0,0,0,0,0],"sum_hessian":[1.6934886E3,4.0064798E2,1.2928406E3,6.438955E2,6.489451E2,2.7690955E2,3.7203558E2,3.1410626E2,3.297892E2,8.7946846E1,3.1270114E2,1.2974038E1,7.497281E1,2.8921345E1,2.837798E2],"tree_param":{"num_deleted":"0","num_feature":"86","num_nodes":"15","size_leaf_vector":"1"}},{"base_weights":[-1.239212E-2,4.8820746E-1,-2.5397617E-1,-6.083174E-1,9.834758E-2,-6.650365E-1,7.1164113E-1,-3.4036175E-3,1.1757746E-2,7.229136E-3,-2.9755773E-3,-1.764082E-4,-1.0398227E-2,-1.4251006E-2,3.8100602E-4],"categories":[],"categories_nodes":[],"categories_segments":[],"categories_sizes":[],"default_left":[0,0,0,0,0,0,0,0,0,0,0,0,0,0,0],"id":22,"left_children":[1,5,3,11,9,13,7,-1,-1,-1,-1,-1,-1,-1,-1],"loss_changes":[2.0557288E2,1.4260725E2,1.4314572E2,7.592627E1,9.284862E1,2.9691135E1,1.0445909E2,0E0,0E0,0E0,0E0,0E0,0E0,0E0,0E0],"parents":[2147483647,0,0,2,2,1,1,6,6,4,4,3,3,5,5],"right_children":[2,6,4,12,10,14,8,-1,-1,-1,-1,-1,-1,-1,-1],"split_conditions":[-5.390149E-1,-5.439944E-1,7.873067E-3,-2.4391612E-2,4.0588194E-1,7.873067E-3,-7.76594E-1,-3.4036175E-3,1.1757746E-2,7.229136E-3,-2.9755773E-3,-1.764082E-4,-1.0398227E-2,-1.4251006E-2,3.8100602E-4],"split_indices":[64,48,8,49,49,8,8,0,0,0,0,0,0,0,0],"split_type":[0,0,0,0,0,0,0,0,0,0,0,0,0,0,0],"sum_hessian":[1.699694E3,5.5322424E2,1.1464697E3,5.715794E2,5.7489026E2,8.975893E1,4.6346533E2,8.748732E1,3.75978E2,2.3687245E2,3.3801782E2,1.5627791E2,4.153015E2,5.330875E1,3.6450176E1],"tree_param":{"num_deleted":"0","num_feature":"86","num_nodes":"15","size_leaf_vector":"1"}},{"base_weights":[-5.163571E-3,6.9774336E-1,-1.9110394E-1,5.3253133E-2,-7.165917E-1,-5.292853E-3,3.0787734E-3,-4.6429336E-1,8.480988E-1,-7.102155E-3,-1.6629783E-2,5.816785E-3,1.3808588E-2,-9.5691E-3,9.501872E-3],"categories":[],"categories_nodes":[],"categories_segments":[],"categories_sizes":[],"default_left":[0,0,0,0,0,0,0,0,0,0,0,0,0,0,0],"id":23,"left_children":[1,7,3,5,9,-1,-1,13,11,-1,-1,-1,-1,-1,-1],"loss_changes":[2.2341325E2,6.250946E1,1.7358849E2,8.492491E1,3.9020325E1,0E0,0E0,1.5171389E1,3.1049667E1,0E0,0E0,0E0,0E0,0E0,0E0],"parents":[2147483647,0,0,2,2,3,3,1,1,4,4,8,8,7,7],"right_children":[2,8,4,6,10,-1,-1,14,12,-1,-1,-1,-1,-1,-1],"split_conditions":[-7.58483E-1,-5.439944E-1,3.6088294E-1,-6.158278E-1,1.7170724E0,-5.292853E-3,3.0787734E-3,7.371291E-3,-7.2398275E-1,-7.102155E-3,-1.6629783E-2,5.816785E-3,1.3808588E-2,-9.5691E-3,9.501872E-3],"split_indices":[67,48,70,11,70,0,0,10,26,0,0,0,0,0,0],"split_type":[0,0,0,0,0,0,0,0,0,0,0,0,0,0,0],"sum_hessian":[1.7092454E3,3.575108E2,1.3517345E3,9.2271814E2,4.290164E2,2.6593674E2,6.567814E2,4.093562E1,3.165752E2,3.4560364E2,8.3412766E1,1.2714692E2,1.8942827E2,3.288013E1,8.055487E0],"tree_param":{"num_deleted":"0","num_feature":"86","num_nodes":"15","size_leaf_vector":"1"}},{"base_weights":[2.8099185E-2,-6.472616E-1,2.3051763E-1,8.9777255E-1,-3.0261325E-2,1.692036E-2,-9.45389E-4,-7.730857E-1,-2.6856447E-2,1.0931278E-2,-4.5661507E-3,-1.1666435E-2,-5.4795984E-3,1.5779514E-2,9.596983E-3],"categories":[],"categories_nodes":[],"categories_segments":[],"categories_sizes":[],"default_left":[0,0,0,0,0,0,0,0,0,0,0,0,0,0,0],"id":24,"left_children":[1,7,3,13,5,-1,-1,11,9,-1,-1,-1,-1,-1,-1],"loss_changes":[2.3106396E2,3.0419724E1,2.262976E2,1.7236206E1,5.8712204E1,0E0,0E0,1.7339066E1,2.0095964E1,0E0,0E0,0E0,0E0,0E0,0E0],"parents":[2147483647,0,0,2,2,4,4,1,1,8,8,7,7,3,3],"right_children":[2,8,4,14,6,-1,-1,12,10,-1,-1,-1,-1,-1,-1],"split_conditions":[-5.439944E-1,5.0215244E-1,-4.5466515E-1,-8.036442E-1,-1.5789376E0,1.692036E-2,-9.45389E-4,2.2339745E-1,-2.4391612E-2,1.0931278E-2,-4.5661507E-3,-1.1666435E-2,-5.4795984E-3,1.5779514E-2,9.596983E-3],"split_indices":[48,6,49,55,16,0,0,65,49,0,0,0,0,0,0],"split_type":[0,0,0,0,0,0,0,0,0,0,0,0,0,0,0],"sum_hessian":[1.6900913E3,3.896943E2,1.3003971E3,3.6536792E2,9.350291E2,2.9607065E1,9.0542206E2,3.2396286E2,6.573147E1,1.790526E1,4.782621E1,2.1898177E2,1.0498109E2,9.5855644E1,2.6951227E2],"tree_param":{"num_deleted":"0","num_feature":"86","num_nodes":"15","size_leaf_vector":"1"}},{"base_weights":[-7.828817E-3,-6.2710834E-1,1.8580787E-1,7.975879E-1,-1.4298884E-2,-5.5170814E-3,2.4794375E-3,1.8068777E-2,5.3748228E-3,-2.2564854E-2,-5.176414E-1,-3.0454295E-3,-1.1143633E-2],"categories":[],"categories_nodes":[],"categories_segments":[],"categories_sizes":[],"default_left":[0,0,0,0,0,0,0,0,0,0,0,0,0],"id":25,"left_children":[1,9,3,7,5,-1,-1,-1,-1,-1,11,-1,-1],"loss_changes":[2.0185582E2,5.1623734E1,1.5699037E2,7.522011E1,8.776891E1,0E0,0E0,0E0,0E0,0E0,3.7569954E1,0E0,0E0],"parents":[2147483647,0,0,2,2,4,4,3,3,1,1,10,10],"right_children":[2,10,4,8,6,-1,-1,-1,-1,-1,12,-1,-1],"split_conditions":[-5.439944E-1,-1.3248838E0,-7.51118E-1,-8.849387E-1,-5.206659E-1,-5.5170814E-3,2.4794375E-3,1.8068777E-2,5.3748228E-3,-2.2564854E-2,8.026946E-1,-3.0454295E-3,-1.1143633E-2],"split_indices":[48,50,67,49,26,0,0,0,0,0,70,0,0],"split_type":[0,0,0,0,0,0,0,0,0,0,0,0,0],"sum_hessian":[1.6831481E3,4.008929E2,1.2822551E3,3.1599054E2,9.662646E2,3.2118454E2,6.4508E2,1.1429697E2,2.0169357E2,3.3978634E1,3.6691428E2,2.118122E2,1.5510208E2],"tree_param":{"num_deleted":"0","num_feature":"86","num_nodes":"13","size_leaf_vector":"1"}},{"base_weights":[1.1327661E-2,7.151156E-1,-1.6807978E-1,-1.1550577E0,-3.0583898E-2,-7.074793E-3,2.1352302E-3,-1.8334711E0,8.303214E-1,-2.1859994E-2,1.1240226E-2,-1.5738262E-2,2.256841E-3,-2.3913993E-2,-1.6082114E-2],"categories":[],"categories_nodes":[],"categories_segments":[],"categories_sizes":[],"default_left":[0,0,0,0,0,0,0,0,0,0,0,0,0,0,0],"id":26,"left_children":[1,7,3,11,5,-1,-1,13,9,-1,-1,-1,-1,-1,-1],"loss_changes":[2.1317615E2,1.0080661E2,1.825605E2,2.2873596E1,1.27349815E2,0E0,0E0,4.39682E-1,5.8430054E1,0E0,0E0,0E0,0E0,0E0,0E0],"parents":[2147483647,0,0,2,2,4,4,1,1,8,8,3,3,7,7],"right_children":[2,8,4,12,6,-1,-1,14,10,-1,-1,-1,-1,-1,-1],"split_conditions":[-7.621654E-1,-1.1688275E0,-7.76594E-1,1.7703075E0,-5.439944E-1,-7.074793E-3,2.1352302E-3,-5.501318E-1,-1.3248838E0,-2.1859994E-2,1.1240226E-2,-1.5738262E-2,2.256841E-3,-2.3913993E-2,-1.6082114E-2],"split_indices":[67,8,8,48,48,0,0,46,50,0,0,0,0,0,0],"split_type":[0,0,0,0,0,0,0,0,0,0,0,0,0,0,0],"sum_hessian":[1.6881508E3,3.428824E2,1.3452683E3,1.6441924E2,1.1808491E3,3.227518E2,8.580973E2,1.4777765E1,3.281046E2,8.486008E0,3.1961862E2,1.5254926E2,1.1869989E1,1.2723129E1,2.0546367E0],"tree_param":{"num_deleted":"0","num_feature":"86","num_nodes":"15","size_leaf_vector":"1"}},{"base_weights":[6.3200416E-3,-3.8834172E-1,3.6591458E-1,2.1626899E-1,-6.1192E-1,-1.1475849E-2,-3.304416E-4,9.0999043E-1,2.4136522E-1,8.966136E-3,-3.5938795E-3,-5.286517E-3,4.0920726E-3,-2.3335917E-2,1.2244686E-2],"categories":[],"categories_nodes":[],"categories_segments":[],"categories_sizes":[],"default_left":[0,0,0,0,0,0,0,0,0,0,0,0,0,0,0],"id":27,"left_children":[1,3,7,9,5,-1,-1,13,11,-1,-1,-1,-1,-1,-1],"loss_changes":[2.4057484E2,1.09259094E2,6.0082863E1,5.5098743E1,1.05750916E2,0E0,0E0,3.205301E1,4.1250412E1,0E0,0E0,0E0,0E0,0E0,0E0],"parents":[2147483647,0,0,1,1,4,4,2,2,3,3,8,8,7,7],"right_children":[2,4,8,10,6,-1,-1,14,12,-1,-1,-1,-1,-1,-1],"split_conditions":[-1.5580332E-1,-2.4391612E-2,-8.5183513E-1,2.6056683E-1,4.0010658E-1,-1.1475849E-2,-3.304416E-4,-1.1688275E0,-1.0486181E0,8.966136E-3,-3.5938795E-3,-5.286517E-3,4.0920726E-3,-2.3335917E-2,1.2244686E-2],"split_indices":[71,49,68,7,8,0,0,8,1,0,0,0,0,0,0],"split_type":[0,0,0,0,0,0,0,0,0,0,0,0,0,0,0],"sum_hessian":[1.6950137E3,8.080931E2,8.869206E2,2.181464E2,5.8994666E2,3.8734924E2,2.0259744E2,1.6511395E2,7.2180664E2,1.09362465E2,1.0878393E2,8.2693565E1,6.391131E2,3.9860878E0,1.6112785E2],"tree_param":{"num_deleted":"0","num_feature":"86","num_nodes":"15","size_leaf_vector":"1"}},{"base_weights":[-2.7999723E-2,7.1600485E-1,-1.7703044E-1,-3.42288E-1,4.6159428E-1,1.4962796E-3,-6.695797E-3,2.0129535E-1,9.414847E-1,1.7351907E-2,-6.5521733E-3,1.1351976E-2,2.6179967E-3,1.7546244E-2,7.982647E-3],"categories":[],"categories_nodes":[],"categories_segments":[],"categories_sizes":[],"default_left":[0,0,0,0,0,0,0,0,0,0,0,0,0,0,0],"id":28,"left_children":[1,7,3,5,11,-1,-1,9,13,-1,-1,-1,-1,-1,-1],"loss_changes":[1.8733902E2,3.27014E1,1.4856966E2,9.991502E1,3.256576E1,0E0,0E0,7.4105865E1,2.7362686E1,0E0,0E0,0E0,0E0,0E0,0E0],"parents":[2147483647,0,0,2,2,3,3,1,1,7,7,4,4,8,8],"right_children":[2,8,4,6,12,-1,-1,10,14,-1,-1,-1,-1,-1,-1],"split_conditions":[-8.3489513E-1,-6.7439425E-1,6.7459685E-1,-2.4391612E-2,-3.808241E-3,1.4962796E-3,-6.695797E-3,-8.849387E-1,-8.849387E-1,1.7351907E-2,-6.5521733E-3,1.1351976E-2,2.6179967E-3,1.7546244E-2,7.982647E-3],"split_indices":[52,2,29,49,61,0,0,49,49,0,0,0,0,0,0],"split_type":[0,0,0,0,0,0,0,0,0,0,0,0,0,0,0],"sum_hessian":[1.6894388E3,2.8188013E2,1.4075587E3,1.1182366E3,2.8932214E2,3.2995193E2,7.8828467E2,8.5919876E1,1.9596027E2,3.2571785E1,5.3348095E1,1.0433063E2,1.8499152E2,7.745645E1,1.18503815E2],"tree_param":{"num_deleted":"0","num_feature":"86","num_nodes":"15","size_leaf_vector":"1"}},{"base_weights":[-6.8182945E-3,4.9876532E-1,-1.9326848E-1,5.886755E-1,-3.0581263E-1,-5.2377484E-3,2.536575E-3,8.2427263E-1,1.7389849E-1,-6.051081E-3,9.735985E-3,-4.4218588E-4,8.699408E-3,6.9170776E-3,1.352713E-2],"categories":[],"categories_nodes":[],"categories_segments":[],"categories_sizes":[],"default_left":[0,0,0,0,0,0,0,0,0,0,0,0,0,0,0],"id":29,"left_children":[1,7,3,9,5,-1,-1,13,11,-1,-1,-1,-1,-1,-1],"loss_changes":[1.5923654E2,4.810956E1,1.0861922E2,3.1717731E1,6.2145203E1,0E0,0E0,1.5825027E1,2.4903038E1,0E0,0E0,0E0,0E0,0E0,0E0],"parents":[2147483647,0,0,2,2,4,4,1,1,3,3,8,8,7,7],"right_children":[2,8,4,10,6,-1,-1,14,12,-1,-1,-1,-1,-1,-1],"split_conditions":[-3.3479053E-1,-5.390149E-1,-8.3489513E-1,-1.0948786E0,5.0215244E-1,-5.2377484E-3,2.536575E-3,-1.5689392E-1,2.2184043E-1,-6.051081E-3,9.735985E-3,-4.4218588E-4,8.699408E-3,6.9170776E-3,1.352713E-2],"split_indices":[76,64,52,82,6,0,0,29,29,0,0,0,0,0,0],"split_type":[0,0,0,0,0,0,0,0,0,0,0,0,0,0,0],"sum_hessian":[1.6890885E3,4.5503687E2,1.2340516E3,1.5522043E2,1.0788312E3,8.824822E2,1.9634901E2,2.2722635E2,2.2781052E2,2.3353657E1,1.3186678E2,1.6266357E2,6.5146935E1,1.1094685E2,1.1627949E2],"tree_param":{"num_deleted":"0","num_feature":"86","num_nodes":"15","size_leaf_vector":"1"}},{"base_weights":[-0E0,7.336186E-1,-1.4715172E-1,4.8471576E-1,-2.6335508E-1,-8.116837E-3,-1.2998406E-3,9.259351E-3,-1.57752E-3,1.4117117E-1,8.950545E-1,1.1535649E-2,-2.218656E-2,-2.0611996E-2,3.1859202E-3],"categories":[],"categories_nodes":[],"categories_segments":[],"categories_sizes":[],"default_left":[0,0,0,0,0,0,0,0,0,0,0,0,0,0,0],"id":30,"left_children":[1,9,3,7,5,-1,-1,-1,-1,13,11,-1,-1,-1,-1],"loss_changes":[1.8225545E2,2.6961166E1,1.0326123E2,3.4181126E1,7.306047E1,0E0,0E0,0E0,0E0,1.2337629E1,1.6569351E1,0E0,0E0,0E0,0E0],"parents":[2147483647,0,0,2,2,4,4,3,3,1,1,10,10,9,9],"right_children":[2,10,4,8,6,-1,-1,-1,-1,14,12,-1,-1,-1,-1],"split_conditions":[-8.3489513E-1,-8.6906385E-1,-4.1457748E-1,2.8022778E-1,-3.9871275E-1,-8.116837E-3,-1.2998406E-3,9.259351E-3,-1.57752E-3,-1.2612147E0,2.540551E0,1.1535649E-2,-2.218656E-2,-2.0611996E-2,3.1859202E-3],"split_indices":[52,18,9,16,5,0,0,0,0,73,47,0,0,0,0],"split_type":[0,0,0,0,0,0,0,0,0,0,0,0,0,0,0],"sum_hessian":[1.6881447E3,2.81987E2,1.4061577E3,2.1838301E2,1.1877747E3,3.4701785E2,8.4075684E2,1.5388466E2,6.449835E1,6.0423225E1,2.2156377E2,2.1933247E2,2.231299E0,3.5439432E0,5.687928E1],"tree_param":{"num_deleted":"0","num_feature":"86","num_nodes":"15","size_leaf_vector":"1"}},{"base_weights":[-7.850078E-3,-3.688498E-1,3.2273105E-1,-5.6816024E-1,4.8098215E-1,1.1075246E-2,2.5522034E-3,2.7909565E-1,-5.1377505E-1,1.0034702E-2,-1.12315575E-2,1.387494E-3,-7.875843E-3,9.932554E-3,6.568084E-4],"categories":[],"categories_nodes":[],"categories_segments":[],"categories_sizes":[],"default_left":[0,0,0,0,0,0,0,0,0,0,0,0,0,0,0],"id":31,"left_children":[1,7,3,9,5,-1,-1,13,11,-1,-1,-1,-1,-1,-1],"loss_changes":[2.0279716E2,7.629018E1,1.2507724E2,6.066685E1,8.443428E1,0E0,0E0,1.7336857E1,4.8242065E1,0E0,0E0,0E0,0E0,0E0,0E0],"parents":[2147483647,0,0,2,2,4,4,1,1,3,3,8,8,7,7],"right_children":[2,8,4,10,6,-1,-1,14,12,-1,-1,-1,-1,-1,-1],"split_conditions":[-1.5580332E-1,-4.913184E-1,-7.76594E-1,-9.412547E-1,-5.2995837E-1,1.1075246E-2,2.5522034E-3,-5.7825965E-1,-4.1457748E-1,1.0034702E-2,-1.12315575E-2,1.387494E-3,-7.875843E-3,9.932554E-3,6.568084E-4],"split_indices":[71,76,8,53,64,0,0,64,9,0,0,0,0,0,0],"split_type":[0,0,0,0,0,0,0,0,0,0,0,0,0,0,0],"sum_hessian":[1.6991722E3,8.1222253E2,8.8694977E2,1.3375055E2,7.531992E2,3.0569687E2,4.4750235E2,1.4844177E2,6.6378076E2,2.594734E1,1.0780321E2,1.0415642E2,5.596243E2,4.5252644E1,1.0318913E2],"tree_param":{"num_deleted":"0","num_feature":"86","num_nodes":"15","size_leaf_vector":"1"}},{"base_weights":[3.067023E-3,7.598479E-1,-1.3418782E-1,-6.209226E-1,3.571906E-2,-1.8918439E-3,7.761614E-3,-2.2885166E-2,8.6254567E-1,-1.3063915E-2,-2.4361222E-3,2.1440884E-2,9.793483E-3],"categories":[],"categories_nodes":[],"categories_segments":[],"categories_sizes":[],"default_left":[0,0,0,0,0,0,0,0,0,0,0,0,0],"id":32,"left_children":[1,7,3,9,5,-1,-1,-1,11,-1,-1,-1,-1],"loss_changes":[1.7600792E2,6.932628E1,1.18620926E2,6.704878E1,1.164055E2,0E0,0E0,0E0,1.6756378E1,0E0,0E0,0E0,0E0],"parents":[2147483647,0,0,2,2,4,4,1,1,3,3,8,8],"right_children":[2,8,4,10,6,-1,-1,-1,12,-1,-1,-1,-1],"split_conditions":[-8.4317994E-1,-1.1688275E0,-5.439944E-1,7.873067E-3,4.8027092E-1,-1.8918439E-3,7.761614E-3,-2.2885166E-2,-1.8751975E0,-1.3063915E-2,-2.4361222E-3,2.1440884E-2,9.793483E-3],"split_indices":[67,8,48,8,29,0,0,0,35,0,0,0,0],"split_type":[0,0,0,0,0,0,0,0,0,0,0,0,0],"sum_hessian":[1.6942838E3,2.6006497E2,1.4342188E3,3.71063E2,1.0631559E3,8.0566516E2,2.5749063E2,9.86508E0,2.5019989E2,1.8587076E2,1.8519221E2,2.1090197E1,2.291097E2],"tree_param":{"num_deleted":"0","num_feature":"86","num_nodes":"13","size_leaf_vector":"1"}},{"base_weights":[-7.611322E-3,7.369413E-1,-2.3260057E-1,-6.298824E-1,1.7994915E-1,5.8940235E-3,-4.0407437E-3,-1.4552859E-2,-5.756895E-3,8.687644E-2,9.5803714E-1,1.1187914E-2,-3.1020585E-3,2.0163693E-3,1.2972729E-2],"categories":[],"categories_nodes":[],"categories_segments":[],"categories_sizes":[],"default_left":[0,0,0,0,0,0,0,0,0,0,0,0,0,0,0],"id":33,"left_children":[1,9,3,7,5,-1,-1,-1,-1,11,13,-1,-1,-1,-1],"loss_changes":[2.8150952E2,5.6035995E1,2.1152878E2,5.943686E1,9.2910355E1,0E0,0E0,0E0,0E0,2.6843702E1,1.8475769E1,0E0,0E0,0E0,0E0],"parents":[2147483647,0,0,2,2,4,4,3,3,1,1,9,9,10,10],"right_children":[2,10,4,8,6,-1,-1,-1,-1,12,14,-1,-1,-1,-1],"split_conditions":[-4.5466515E-1,-8.304001E-1,7.873067E-3,-7.76594E-1,8.361555E-1,5.8940235E-3,-4.0407437E-3,-1.4552859E-2,-5.756895E-3,-9.4881004E-1,-7.76594E-1,1.1187914E-2,-3.1020585E-3,2.0163693E-3,1.2972729E-2],"split_indices":[49,25,8,8,49,0,0,0,0,52,8,0,0,0,0],"split_type":[0,0,0,0,0,0,0,0,0,0,0,0,0,0,0],"sum_hessian":[1.6803544E3,3.8989185E2,1.2904625E3,6.5738306E2,6.3307947E2,4.0083932E2,2.3224013E2,1.580742E2,4.9930887E2,9.8986465E1,2.909054E2,2.897838E1,7.000809E1,2.6506657E1,2.6439874E2],"tree_param":{"num_deleted":"0","num_feature":"86","num_nodes":"15","size_leaf_vector":"1"}},{"base_weights":[-1.6314896E-4,-8.5533816E-1,1.3600878E-1,6.8244773E-1,-2.9217293E-2,9.924348E-3,-2.3271858E-3,6.8227786E-1,-9.5485157E-1,7.1894596E-3,-1.3597639E-2,9.574487E-3,-2.767829E-3,1.645525E-2,-7.618976E-4],"categories":[],"categories_nodes":[],"categories_segments":[],"categories_sizes":[],"default_left":[0,0,0,0,0,0,0,0,0,0,0,0,0,0,0],"id":34,"left_children":[1,7,3,11,5,-1,-1,13,9,-1,-1,-1,-1,-1,-1],"loss_changes":[1.9738766E2,3.5677612E1,1.3201814E2,2.5641403E1,1.450701E2,0E0,0E0,6.7033987E0,4.454367E1,0E0,0E0,0E0,0E0,0E0,0E0],"parents":[2147483647,0,0,2,2,4,4,1,1,8,8,3,3,7,7],"right_children":[2,8,4,12,6,-1,-1,14,10,-1,-1,-1,-1,-1,-1],"split_conditions":[-7.76594E-1,-9.090023E-1,-4.913184E-1,7.00365E-1,-7.387469E-1,9.924348E-3,-2.3271858E-3,-8.3066195E-1,-9.412547E-1,7.1894596E-3,-1.3597639E-2,9.574487E-3,-2.767829E-3,1.645525E-2,-7.618976E-4],"split_indices":[8,65,76,85,66,0,0,42,53,0,0,0,0,0,0],"split_type":[0,0,0,0,0,0,0,0,0,0,0,0,0,0,0],"sum_hessian":[1.6948396E3,2.3275497E2,1.4620846E3,3.39403E2,1.1226815E3,1.7973122E2,9.429504E2,1.4117176E1,2.1863779E2,1.74568E1,2.0118098E2,3.1071384E2,2.8689178E1,7.5903854E0,6.5267906E0],"tree_param":{"num_deleted":"0","num_feature":"86","num_nodes":"15","size_leaf_vector":"1"}},{"base_weights":[4.528007E-3,-1.1887003E-1,6.2608314E-1,3.535804E-1,-3.4265107E-1,-6.9717974E-3,7.426248E-3,-1.0626971E-2,-1.7819166E-3,-1.5456812E0,7.243303E-1,1.0990004E-2,-3.1864406E-3,-2.226593E-2,-4.1413526E-3],"categories":[],"categories_nodes":[],"categories_segments":[],"categories_sizes":[],"default_left":[0,0,0,0,0,0,0,0,0,0,0,0,0,0,0],"id":35,"left_children":[1,3,9,5,7,-1,-1,-1,-1,13,11,-1,-1,-1,-1],"loss_changes":[1.3002905E2,1.4955368E2,5.999958E1,9.96832E1,9.746091E1,0E0,0E0,0E0,0E0,3.4254513E0,4.0774506E1,0E0,0E0,0E0,0E0],"parents":[2147483647,0,0,1,1,3,3,4,4,2,2,10,10,9,9],"right_children":[2,4,10,6,8,-1,-1,-1,-1,14,12,-1,-1,-1,-1],"split_conditions":[8.567774E-1,-5.390149E-1,-1.1688275E0,-7.76594E-1,-3.8436046E-1,-6.9717974E-3,7.426248E-3,-1.0626971E-2,-1.7819166E-3,-8.8433224E-1,1.0425178E0,1.0990004E-2,-3.1864406E-3,-2.226593E-2,-4.1413526E-3],"split_indices":[29,64,8,8,8,0,0,0,0,18,61,0,0,0,0],"split_type":[0,0,0,0,0,0,0,0,0,0,0,0,0,0,0],"sum_hessian":[1.6951324E3,1.4143848E3,2.8074768E2,4.5458508E2,9.5979974E2,9.489672E1,3.5968835E2,2.713353E2,6.884644E2,1.2099572E1,2.686481E2,2.3197484E2,3.6673275E1,1.0099555E1,2.0000172E0],"tree_param":{"num_deleted":"0","num_feature":"86","num_nodes":"15","size_leaf_vector":"1"}},{"base_weights":[-1.4719875E-2,6.807317E-1,-1.5556209E-1,7.247475E-2,-6.612341E-1,5.3582634E-3,-3.1926625E-3,-1.5745673E-2,8.929871E-1,6.8373396E-3,-6.6431123E-3,-1.117413E-2,-5.884457E-3,1.1992092E-2,2.022406E-3],"categories":[],"categories_nodes":[],"categories_segments":[],"categories_sizes":[],"default_left":[0,0,0,0,0,0,0,0,0,0,0,0,0,0,0],"id":36,"left_children":[1,7,3,5,11,-1,-1,9,13,-1,-1,-1,-1,-1,-1],"loss_changes":[1.6523479E2,4.200551E1,1.6177525E2,1.12935234E2,1.9285812E1,0E0,0E0,1.9299248E1,1.0550217E1,0E0,0E0,0E0,0E0,0E0,0E0],"parents":[2147483647,0,0,2,2,3,3,1,1,7,7,4,4,8,8],"right_children":[2,8,4,6,12,-1,-1,10,14,-1,-1,-1,-1,-1,-1],"split_conditions":[-8.3592397E-1,-8.304001E-1,3.6088294E-1,-2.308373E-2,-3.0453056E-1,5.3582634E-3,-3.1926625E-3,-7.236185E-1,1.3870162E0,6.8373396E-3,-6.6431123E-3,-1.117413E-2,-5.884457E-3,1.1992092E-2,2.022406E-3],"split_indices":[53,25,70,9,25,0,0,55,76,0,0,0,0,0,0],"split_type":[0,0,0,0,0,0,0,0,0,0,0,0,0,0,0],"sum_hessian":[1.6868228E3,2.840252E2,1.4027975E3,9.668444E2,4.359531E2,4.6342194E2,5.034225E2,6.6350296E1,2.1767491E2,3.1720478E1,3.4629814E1,1.9608846E2,2.3986464E2,1.995288E2,1.814612E1],"tree_param":{"num_deleted":"0","num_feature":"86","num_nodes":"15","size_leaf_vector":"1"}},{"base_weights":[-1.2507508E-2,-8.54934E-1,1.2285412E-1,4.0389127E-1,-2.9338247E-1,1.1918998E-2,1.2806485E-3,1.9059074E-1,-1.1129923E0,6.933894E-3,-5.1689106E-3,5.5540786E-3,-1.2415614E-2,-1.6117444E-2,-9.977251E-3],"categories":[],"categories_nodes":[],"categories_segments":[],"categories_sizes":[],"default_left":[0,0,0,0,0,0,0,0,0,0,0,0,0,0,0],"id":37,"left_children":[1,7,3,5,9,-1,-1,11,13,-1,-1,-1,-1,-1,-1],"loss_changes":[1.914284E2,6.272412E1,1.691939E2,1.4303432E2,5.9410156E1,0E0,0E0,1.3867623E1,1.0260605E1,0E0,0E0,0E0,0E0,0E0,0E0],"parents":[2147483647,0,0,2,2,3,3,1,1,4,4,7,7,8,8],"right_children":[2,8,4,6,10,-1,-1,12,14,-1,-1,-1,-1,-1,-1],"split_conditions":[-7.76594E-1,-8.726398E-1,1.2888522E-3,-4.5466515E-1,-2.4391612E-2,1.1918998E-2,1.2806485E-3,1.5303863E0,-7.8408235E-1,6.933894E-3,-5.1689106E-3,5.5540786E-3,-1.2415614E-2,-1.6117444E-2,-9.977251E-3],"split_indices":[8,67,52,49,49,0,0,31,23,0,0,0,0,0,0],"split_type":[0,0,0,0,0,0,0,0,0,0,0,0,0,0,0],"sum_hessian":[1.6785361E3,2.3232098E2,1.4462151E3,8.633263E2,5.828888E2,3.0571548E2,5.576108E2,4.598965E1,1.8633134E2,7.22801E1,5.106087E2,3.7915867E1,8.073782E0,1.1925301E2,6.707832E1],"tree_param":{"num_deleted":"0","num_feature":"86","num_nodes":"15","size_leaf_vector":"1"}},{"base_weights":[6.6153593E-3,-3.3954236E-1,3.1623858E-1,1.2454616E0,1.8398485E-1,-4.6631668E-4,9.167402E-3,1.9881526E-1,-5.3915864E-1,8.45655E-3,-3.2557491E-3,-7.1342993E-3,2.2558246E-2,4.0621494E-4,1.6198343E-2],"categories":[],"categories_nodes":[],"categories_segments":[],"categories_sizes":[],"default_left":[0,0,0,0,0,0,0,0,0,0,0,0,0,0,0],"id":38,"left_children":[1,7,3,13,5,-1,-1,9,11,-1,-1,-1,-1,-1,-1],"loss_changes":[1.8015337E2,8.529511E1,1.0901287E2,6.7464294E0,9.445027E1,0E0,0E0,4.712371E1,4.2932236E1,0E0,0E0,0E0,0E0,0E0,0E0],"parents":[2147483647,0,0,2,2,4,4,1,1,7,7,8,8,3,3],"right_children":[2,8,4,14,6,-1,-1,10,12,-1,-1,-1,-1,-1,-1],"split_conditions":[-1.5580332E-1,-2.4391612E-2,-8.849387E-1,-6.8777317E-1,3.0901715E-1,-4.6631668E-4,9.167402E-3,2.6056683E-1,2.2841923E0,8.45655E-3,-3.2557491E-3,-7.1342993E-3,2.2558246E-2,4.0621494E-4,1.6198343E-2],"split_indices":[71,49,49,30,29,0,0,7,29,0,0,0,0,0,0],"split_type":[0,0,0,0,0,0,0,0,0,0,0,0,0,0,0],"sum_hessian":[1.6807216E3,7.9353015E2,8.8719135E2,1.1045306E2,7.767383E2,5.537562E2,2.2298204E2,2.1463553E2,5.7889465E2,1.0519539E2,1.0944015E2,5.7125665E2,7.6379633E0,4.416742E0,1.06036316E2],"tree_param":{"num_deleted":"0","num_feature":"86","num_nodes":"15","size_leaf_vector":"1"}},{"base_weights":[6.450875E-3,-6.12828E-1,1.9672732E-1,5.9355706E-1,-2.1175936E-2,3.42416E-3,-3.5972886E-3,-2.4697317E-1,-9.376228E-1,1.7630681E-3,9.8933475E-3,-2.2190029E-2,-1.4191581E-3,6.063204E-3,-1.2438535E-2],"categories":[],"categories_nodes":[],"categories_segments":[],"categories_sizes":[],"default_left":[0,0,0,0,0,0,0,0,0,0,0,0,0,0,0],"id":39,"left_children":[1,7,3,9,5,-1,-1,11,13,-1,-1,-1,-1,-1,-1],"loss_changes":[1.9901636E2,4.714563E1,1.1172492E2,4.1001694E1,6.563109E1,0E0,0E0,3.806573E1,1.7227005E1,0E0,0E0,0E0,0E0,0E0,0E0],"parents":[2147483647,0,0,2,2,4,4,1,1,3,3,7,7,8,8],"right_children":[2,8,4,10,6,-1,-1,12,14,-1,-1,-1,-1,-1,-1],"split_conditions":[-5.439944E-1,-6.8310085E-3,-5.462644E-1,-6.7439425E-1,-1.0706429E-1,3.42416E-3,-3.5972886E-3,-1.3248838E0,-1.5531998E0,1.7630681E-3,9.8933475E-3,-2.2190029E-2,-1.4191581E-3,6.063204E-3,-1.2438535E-2],"split_indices":[48,7,53,2,30,0,0,50,35,0,0,0,0,0,0],"split_type":[0,0,0,0,0,0,0,0,0,0,0,0,0,0,0],"sum_hessian":[1.6888202E3,3.9688986E2,1.2919303E3,4.579116E2,8.340187E2,3.9583823E2,4.3818045E2,1.8671912E2,2.1017073E2,1.393827E2,3.1852887E2,1.4915473E1,1.7180365E2,8.132771E0,2.0203796E2],"tree_param":{"num_deleted":"0","num_feature":"86","num_nodes":"15","size_leaf_vector":"1"}},{"base_weights":[5.1246124E-4,5.080214E-1,-1.6655675E-1,6.7838736E-2,-6.775736E-1,-1.2954168E-2,2.599348E-3,-2.220024E-2,5.683881E-1,-1.0263195E-2,4.036855E-3,2.6954708E-3,1.0554437E-2],"categories":[],"categories_nodes":[],"categories_segments":[],"categories_sizes":[],"default_left":[0,0,0,0,0,0,0,0,0,0,0,0,0],"id":40,"left_children":[1,7,3,5,9,-1,-1,-1,11,-1,-1,-1,-1],"loss_changes":[1.4312129E2,5.771064E1,1.5211473E2,1.3470226E2,5.735031E1,0E0,0E0,0E0,3.963394E1,0E0,0E0,0E0,0E0],"parents":[2147483647,0,0,2,2,3,3,1,1,4,4,8,8],"right_children":[2,8,4,6,10,-1,-1,-1,12,-1,-1,-1,-1],"split_conditions":[-6.885159E-1,-1.3248838E0,3.6088294E-1,-7.76594E-1,1.188989E0,-1.2954168E-2,2.599348E-3,-2.220024E-2,-2.14818E-1,-1.0263195E-2,4.036855E-3,2.6954708E-3,1.0554437E-2],"split_indices":[67,50,70,8,29,0,0,0,29,0,0,0,0],"split_type":[0,0,0,0,0,0,0,0,0,0,0,0,0],"sum_hessian":[1.6877905E3,4.179768E2,1.2698137E3,8.705569E2,3.9925687E2,9.796696E1,7.725899E2,1.0704174E1,4.072726E2,3.4919907E2,5.00578E1,1.7883614E2,2.284365E2],"tree_param":{"num_deleted":"0","num_feature":"86","num_nodes":"13","size_leaf_vector":"1"}},{"base_weights":[-9.802229E-3,5.948185E-1,-1.5502998E-1,-2.4221866E-1,4.834262E-1,-1.0651812E-4,-9.262091E-3,9.199243E-1,2.925032E-1,-8.407222E-3,6.4762393E-3,1.4462849E-3,1.2039932E-2,4.2530014E-3,1.3527602E-2],"categories":[],"categories_nodes":[],"categories_segments":[],"categories_sizes":[],"default_left":[0,0,0,0,0,0,0,0,0,0,0,0,0,0,0],"id":41,"left_children":[1,7,3,5,11,-1,-1,13,9,-1,-1,-1,-1,-1,-1],"loss_changes":[1.4825227E2,3.211061E1,7.579164E1,1.3961603E2,2.8846512E1,0E0,0E0,1.4780991E1,3.6941574E1,0E0,0E0,0E0,0E0,0E0,0E0],"parents":[2147483647,0,0,2,2,3,3,1,1,8,8,4,4,7,7],"right_children":[2,8,4,6,12,-1,-1,14,10,-1,-1,-1,-1,-1,-1],"split_conditions":[-7.387469E-1,-9.1972536E-1,7.327018E-1,3.6088294E-1,5.54885E-1,-1.0651812E-4,-9.262091E-3,-7.361347E-1,-1.0486181E0,-8.407222E-3,6.4762393E-3,1.4462849E-3,1.2039932E-2,4.2530014E-3,1.3527602E-2],"split_indices":[66,52,10,70,29,0,0,29,1,0,0,0,0,0,0],"split_type":[0,0,0,0,0,0,0,0,0,0,0,0,0,0,0],"sum_hessian":[1.6882488E3,3.2691956E2,1.3613292E3,1.197811E3,1.6351817E2,8.1569366E2,3.8211737E2,1.5743738E2,1.6948218E2,3.207776E1,1.3740442E2,9.2629105E1,7.088906E1,3.4494766E1,1.22942604E2],"tree_param":{"num_deleted":"0","num_feature":"86","num_nodes":"15","size_leaf_vector":"1"}},{"base_weights":[-1.968424E-3,4.997918E-1,-1.4957061E-1,-6.835226E-1,5.5426117E-2,-1.812462E-3,8.337929E-3,-4.7925515E-3,-1.2788275E-2,6.377408E-1,-3.131516E-2,1.2873173E-2,5.7893167E-3,-3.4428814E-3,8.848774E-3],"categories":[],"categories_nodes":[],"categories_segments":[],"categories_sizes":[],"default_left":[0,0,0,0,0,0,0,0,0,0,0,0,0,0,0],"id":42,"left_children":[1,9,3,7,5,-1,-1,-1,-1,11,13,-1,-1,-1,-1],"loss_changes":[1.24808784E2,2.8069893E1,1.4254285E2,3.6775024E1,1.1535944E2,0E0,0E0,0E0,0E0,2.0772514E1,1.4275839E1,0E0,0E0,0E0,0E0],"parents":[2147483647,0,0,2,2,4,4,3,3,1,1,9,9,10,10],"right_children":[2,10,4,8,6,-1,-1,-1,-1,12,14,-1,-1,-1,-1],"split_conditions":[-4.913184E-1,1.0255332E0,-5.439944E-1,-2.308373E-2,4.9279505E-1,-1.812462E-3,8.337929E-3,-4.7925515E-3,-1.2788275E-2,-4.8514503E-1,5.149995E-1,1.2873173E-2,5.7893167E-3,-3.4428814E-3,8.848774E-3],"split_indices":[76,73,48,9,29,0,0,0,0,63,19,0,0,0,0],"split_type":[0,0,0,0,0,0,0,0,0,0,0,0,0,0,0],"sum_hessian":[1.6850944E3,3.8297656E2,1.3021178E3,3.6118823E2,9.409295E2,7.087284E2,2.3220114E2,1.918196E2,1.6936864E2,3.040098E2,7.896678E1,9.353552E1,2.1047427E2,5.940526E1,1.9561527E1],"tree_param":{"num_deleted":"0","num_feature":"86","num_nodes":"15","size_leaf_vector":"1"}},{"base_weights":[1.4510746E-2,-1.5924096E-1,5.29863E-1,4.6965075E-1,-3.176958E-1,1.812355E-2,-5.300714E-3,7.1594423E-1,-1.1490508E-1,-2.2111877E-3,1.2838051E-2,8.273689E-3,-1.1483835E-3,-3.0921435E-3,2.1735607E-2],"categories":[],"categories_nodes":[],"categories_segments":[],"categories_sizes":[],"default_left":[0,0,0,0,0,0,0,0,0,0,0,0,0,0,0],"id":43,"left_children":[1,3,7,11,5,-1,-1,9,13,-1,-1,-1,-1,-1,-1],"loss_changes":[1.4986047E2,1.2473344E2,5.0639786E1,2.7201588E1,1.8799869E2,0E0,0E0,9.098494E1,2.324592E1,0E0,0E0,0E0,0E0,0E0,0E0],"parents":[2147483647,0,0,1,1,4,4,2,2,7,7,3,3,8,8],"right_children":[2,4,8,12,6,-1,-1,10,14,-1,-1,-1,-1,-1,-1],"split_conditions":[4.8027092E-1,-6.478463E-1,8.361555E-1,-4.0319425E-1,-8.849387E-1,1.812355E-2,-5.300714E-3,-3.8436046E-1,2.2841923E0,-2.2111877E-3,1.2838051E-2,8.273689E-3,-1.1483835E-3,-3.0921435E-3,2.1735607E-2],"split_indices":[29,76,49,54,49,0,0,8,29,0,0,0,0,0,0],"split_type":[0,0,0,0,0,0,0,0,0,0,0,0,0,0,0],"sum_hessian":[1.6734347E3,1.2515228E3,4.219119E2,2.5183313E2,9.9968964E2,5.6682537E1,9.4300714E2,3.2741925E2,9.449264E1,8.460904E1,2.4281021E2,1.8760234E2,6.42308E1,8.8255424E1,6.237218E0],"tree_param":{"num_deleted":"0","num_feature":"86","num_nodes":"15","size_leaf_vector":"1"}},{"base_weights":[-3.5138736E-3,4.7958806E-1,-3.3302572E-1,-4.639056E-1,4.5773694E-1,-1.9952145E-1,6.7959607E-1,-2.8215395E-3,-1.0174163E-2,1.2643672E-2,5.222047E-3,3.5382619E-3,-6.7217373E-3,1.5236002E-2,3.695317E-3],"categories":[],"categories_nodes":[],"categories_segments":[],"categories_sizes":[],"default_left":[0,0,0,0,0,0,0,0,0,0,0,0,0,0,0],"id":44,"left_children":[1,5,3,7,13,11,9,-1,-1,-1,-1,-1,-1,-1,-1],"loss_changes":[2.6878873E2,9.301099E1,1.0390761E2,7.178848E1,1.7556505E1,2.544617E1,4.592372E1,0E0,0E0,0E0,0E0,0E0,0E0,0E0,0E0],"parents":[2147483647,0,0,2,2,1,1,3,3,6,6,5,5,4,4],"right_children":[2,6,4,8,14,12,10,-1,-1,-1,-1,-1,-1,-1,-1],"split_conditions":[-2.4391612E-2,-8.304001E-1,7.327018E-1,4.511161E-1,-6.077552E-1,-6.8310085E-3,-6.8310085E-3,-2.8215395E-3,-1.0174163E-2,1.2643672E-2,5.222047E-3,3.5382619E-3,-6.7217373E-3,1.5236002E-2,3.695317E-3],"split_indices":[49,25,10,61,30,7,7,0,0,0,0,0,0,0,0],"split_type":[0,0,0,0,0,0,0,0,0,0,0,0,0,0,0],"sum_hessian":[1.6883536E3,6.8459937E2,1.0037542E3,8.612476E2,1.425066E2,1.5574623E2,5.2885315E2,5.125897E2,3.486579E2,2.3311531E2,2.9573785E2,6.417415E1,9.1572075E1,2.4928387E1,1.1757823E2],"tree_param":{"num_deleted":"0","num_feature":"86","num_nodes":"15","size_leaf_vector":"1"}},{"base_weights":[-1.3223617E-2,-4.8319083E-1,1.9383463E-1,7.2520685E-1,-3.155633E-2,3.8101885E-3,-3.976625E-3,5.45953E-1,-6.084173E-1,-1.2892395E-2,-3.9308E-3,-1.0531674E-3,1.0871786E-2,-2.1187102E-2,8.805541E-3],"categories":[],"categories_nodes":[],"categories_segments":[],"categories_sizes":[],"default_left":[0,0,0,0,0,0,0,0,0,0,0,0,0,0,0],"id":45,"left_children":[1,7,3,11,5,-1,-1,13,9,-1,-1,-1,-1,-1,-1],"loss_changes":[1.6350102E2,6.625074E1,1.3969154E2,4.065274E1,7.895611E1,0E0,0E0,1.9895689E1,5.6932587E1,0E0,0E0,0E0,0E0,0E0,0E0],"parents":[2147483647,0,0,2,2,4,4,1,1,8,8,3,3,7,7],"right_children":[2,8,4,12,6,-1,-1,14,10,-1,-1,-1,-1,-1,-1],"split_conditions":[-3.8436046E-1,-9.560812E-1,-4.9072665E-1,-5.439944E-1,-2.308373E-2,3.8101885E-3,-3.976625E-3,-1.1688275E0,1.5222783E-3,-1.2892395E-2,-3.9308E-3,-1.0531674E-3,1.0871786E-2,-2.1187102E-2,8.805541E-3],"split_indices":[8,52,52,48,9,0,0,8,48,0,0,0,0,0,0],"split_type":[0,0,0,0,0,0,0,0,0,0,0,0,0,0,0],"sum_hessian":[1.6800297E3,5.137903E2,1.1662394E3,3.4730533E2,8.18934E2,3.7672238E2,4.422116E2,5.5702988E1,4.580873E2,1.8773703E2,2.7035028E2,5.2617123E1,2.946882E2,3.628014E0,5.2074974E1],"tree_param":{"num_deleted":"0","num_feature":"86","num_nodes":"15","size_leaf_vector":"1"}},{"base_weights":[-2.2936657E-4,5.419589E-1,-1.3769922E-1,-5.835732E-1,-2.7571235E-2,2.8307792E-3,-6.8632676E-3,-4.9033707E-1,6.962199E-1,-1.1515641E-2,-3.8392749E-3,1.20637445E-2,5.7028844E-3,-7.7546868E-3,1.8313553E-2],"categories":[],"categories_nodes":[],"categories_segments":[],"categories_sizes":[],"default_left":[0,0,0,0,0,0,0,0,0,0,0,0,0,0,0],"id":46,"left_children":[1,7,3,9,5,-1,-1,13,11,-1,-1,-1,-1,-1,-1],"loss_changes":[1.2465354E2,5.3894104E1,6.55081E1,2.46372E1,1.4176318E2,0E0,0E0,1.1256614E1,1.8950073E1,0E0,0E0,0E0,0E0,0E0,0E0],"parents":[2147483647,0,0,2,2,4,4,1,1,3,3,8,8,7,7],"right_children":[2,8,4,10,6,-1,-1,14,12,-1,-1,-1,-1,-1,-1],"split_conditions":[-7.5461483E-1,-5.439944E-1,-7.6878136E-1,1.5222783E-3,3.6088294E-1,2.8307792E-3,-6.8632676E-3,1.28534E0,-9.560812E-1,-1.1515641E-2,-3.8392749E-3,1.20637445E-2,5.7028844E-3,-7.7546868E-3,1.8313553E-2],"split_indices":[83,48,26,48,70,0,0,3,52,0,0,0,0,0,0],"split_type":[0,0,0,0,0,0,0,0,0,0,0,0,0,0,0],"sum_hessian":[1.6723075E3,3.3819186E2,1.3341156E3,2.641739E2,1.0699418E3,7.194885E2,3.504532E2,4.39406E1,2.9425125E2,1.1882347E2,1.453504E2,1.3865201E2,1.5559924E2,4.1252457E1,2.6881423E0],"tree_param":{"num_deleted":"0","num_feature":"86","num_nodes":"15","size_leaf_vector":"1"}},{"base_weights":[7.1966643E-3,4.6951884E-1,-3.074142E-1,7.407769E-2,-7.053783E-1,1.2184718E0,3.0301988E-1,-1.0589068E-2,7.2238385E-3,-1.2227033E-2,-9.208461E-4,-4.3851663E-3,4.2027207E-3,1.152597E-2,1.7168313E-2],"categories":[],"categories_nodes":[],"categories_segments":[],"categories_sizes":[],"default_left":[0,0,0,0,0,0,0,0,0,0,0,0,0,0,0],"id":47,"left_children":[1,5,3,11,9,13,7,-1,-1,-1,-1,-1,-1,-1,-1],"loss_changes":[2.4270172E2,8.422095E1,1.5075185E2,5.647998E1,8.3732376E1,5.5334015E0,1.7484262E2,0E0,0E0,0E0,0E0,0E0,0E0,0E0,0E0],"parents":[2147483647,0,0,2,2,1,1,6,6,4,4,3,3,5,5],"right_children":[2,6,4,12,10,14,8,-1,-1,-1,-1,-1,-1,-1,-1],"split_conditions":[-2.4391612E-2,-8.849387E-1,1.3479313E-1,-7.1149487E-3,4.0010658E-1,-5.8720684E-1,-7.76594E-1,-1.0589068E-2,7.2238385E-3,-1.2227033E-2,-9.208461E-4,-4.3851663E-3,4.2027207E-3,1.152597E-2,1.7168313E-2],"split_indices":[49,49,76,8,8,35,8,0,0,0,0,0,0,0,0],"split_type":[0,0,0,0,0,0,0,0,0,0,0,0,0,0,0],"sum_hessian":[1.6684496E3,6.756139E2,9.9283575E2,5.0693243E2,4.8590332E2,1.2278379E2,5.528301E2,1.0660537E2,4.462247E2,3.3932498E2,1.4657835E2,1.9340369E2,3.1352875E2,4.2355927E1,8.0427864E1],"tree_param":{"num_deleted":"0","num_feature":"86","num_nodes":"15","size_leaf_vector":"1"}},{"base_weights":[-4.4811377E-3,6.678087E-1,-2.1047282E-1,-1.6266899E-1,-1.1459433E0,-3.3179072E-3,6.903445E-3,1.1894053E0,4.3870658E-1,-9.948052E-3,7.865872E-3,1.5946768E-2,7.811277E-4,1.644196E-3,-1.5245164E-2],"categories":[],"categories_nodes":[],"categories_segments":[],"categories_sizes":[],"default_left":[0,0,0,0,0,0,0,0,0,0,0,0,0,0,0],"id":48,"left_children":[1,7,3,5,13,-1,-1,11,9,-1,-1,-1,-1,-1,-1],"loss_changes":[2.3267732E2,4.7039795E1,5.749134E1,8.9913315E1,5.9016647E0,0E0,0E0,1.1681137E1,6.448123E1,0E0,0E0,0E0,0E0,0E0,0E0],"parents":[2147483647,0,0,2,2,3,3,1,1,8,8,7,7,4,4],"right_children":[2,8,4,6,14,-1,-1,12,10,-1,-1,-1,-1,-1,-1],"split_conditions":[-4.5466515E-1,-8.849387E-1,2.540551E0,7.327018E-1,-1.272E0,-3.3179072E-3,6.903445E-3,2.9875593E0,-1.118933E0,-9.948052E-3,7.865872E-3,1.5946768E-2,7.811277E-4,1.644196E-3,-1.5245164E-2],"split_indices":[49,49,47,10,16,0,0,71,82,0,0,0,0,0,0],"split_type":[0,0,0,0,0,0,0,0,0,0,0,0,0,0,0],"sum_hessian":[1.680016E3,3.9398294E2,1.286033E3,1.2236013E3,6.243165E1,1.0698776E3,1.5372382E2,1.2013203E2,2.7385092E2,3.6582058E1,2.3726886E2,1.1156889E2,8.563137E0,3.3961816E0,5.9035465E1],"tree_param":{"num_deleted":"0","num_feature":"86","num_nodes":"15","size_leaf_vector":"1"}},{"base_weights":[1.15299625E-2,-7.893154E-1,1.3978049E-1,7.1863645E-1,-4.6527524E-2,3.277442E-3,-4.0630167E-3,4.2063147E-1,-9.65478E-1,9.5973695E-3,-1.02933515E-2,-1.3352774E-2,-1.461228E-3,1.0176156E-2,-8.594043E-3],"categories":[],"categories_nodes":[],"categories_segments":[],"categories_sizes":[],"default_left":[0,0,0,0,0,0,0,0,0,0,0,0,0,0,0],"id":49,"left_children":[1,7,3,9,5,-1,-1,13,11,-1,-1,-1,-1,-1,-1],"loss_changes":[1.7222263E2,4.9369766E1,1.5588402E2,2.672493E1,9.403065E1,0E0,0E0,1.2890829E1,1.760115E1,0E0,0E0,0E0,0E0,0E0,0E0],"parents":[2147483647,0,0,2,2,4,4,1,1,3,3,8,8,7,7],"right_children":[2,8,4,10,6,-1,-1,14,12,-1,-1,-1,-1,-1,-1],"split_conditions":[-7.76594E-1,-9.4881004E-1,-6.2973815E-1,1.5895936E0,-2.308373E-2,3.277442E-3,-4.0630167E-3,-6.1871904E-1,1.5755663E0,9.5973695E-3,-1.02933515E-2,-1.3352774E-2,-1.461228E-3,1.0176156E-2,-8.594043E-3],"split_indices":[8,52,83,47,9,0,0,43,50,0,0,0,0,0,0],"split_type":[0,0,0,0,0,0,0,0,0,0,0,0,0,0,0],"sum_hessian":[1.6766853E3,2.313854E2,1.4452999E3,3.518678E2,1.0934321E3,5.1858307E2,5.74849E2,2.9389202E1,2.019962E2,3.4103973E2,1.0828042E1,1.8015631E2,2.1839884E1,2.1707531E1,7.6816726E0],"tree_param":{"num_deleted":"0","num_feature":"86","num_nodes":"15","size_leaf_vector":"1"}},{"base_weights":[-5.651154E-3,1.7745875E-1,-3.3665338E-1,-2.9574215E-1,3.8623357E-1,1.6489286E-3,1.1259771E-2,-8.892878E-2,-7.544262E-1,4.2845844E-3,-6.185623E-3,-2.177551E-3,1.3487644E-2,3.8844578E-3,-1.0555173E-2],"categories":[],"categories_nodes":[],"categories_segments":[],"categories_sizes":[],"default_left":[0,0,0,0,0,0,0,0,0,0,0,0,0,0,0],"id":50,"left_children":[1,3,7,9,5,-1,-1,11,13,-1,-1,-1,-1,-1,-1],"loss_changes":[1.0170801E2,1.0674275E2,6.1845398E1,4.2065804E1,9.80878E1,0E0,0E0,3.738699E1,2.1346977E1,0E0,0E0,0E0,0E0,0E0,0E0],"parents":[2147483647,0,0,1,1,4,4,2,2,3,3,7,7,8,8],"right_children":[2,4,8,10,6,-1,-1,12,14,-1,-1,-1,-1,-1,-1],"split_conditions":[4.511161E-1,-3.8436046E-1,5.457736E-1,-8.4317994E-1,2.8515825E-1,1.6489286E-3,1.1259771E-2,1.3472636E0,-4.913184E-1,4.2845844E-3,-6.185623E-3,-2.177551E-3,1.3487644E-2,3.8844578E-3,-1.0555173E-2],"split_indices":[61,8,70,67,29,0,0,29,76,0,0,0,0,0,0],"split_type":[0,0,0,0,0,0,0,0,0,0,0,0,0,0,0],"sum_hessian":[1.6779114E3,1.080305E3,5.976063E2,3.306975E2,7.4960754E2,5.0173096E2,2.4787657E2,3.7522076E2,2.2238553E2,7.858881E1,2.5210872E2,3.4975418E2,2.5466608E1,1.730389E1,2.0508163E2],"tree_param":{"num_deleted":"0","num_feature":"86","num_nodes":"15","size_leaf_vector":"1"}},{"base_weights":[-3.0535155E-3,-5.8684504E-1,1.764241E-1,-6.362958E-1,3.185915E-1,1.0178647E-2,8.5631915E-4,1.4350136E-1,-7.472351E-1,-1.1686848E-2,-1.2165303E-3,1.2435249E-2,-9.240314E-3,-3.8585223E-3,1.1324811E-2],"categories":[],"categories_nodes":[],"categories_segments":[],"categories_sizes":[],"default_left":[0,0,0,0,0,0,0,0,0,0,0,0,0,0,0],"id":51,"left_children":[1,7,3,11,5,-1,-1,13,9,-1,-1,-1,-1,-1,-1],"loss_changes":[1.7507935E2,4.6038452E1,1.4767902E2,3.2003197E1,1.3484259E2,0E0,0E0,2.4438211E1,3.929248E1,0E0,0E0,0E0,0E0,0E0,0E0],"parents":[2147483647,0,0,2,2,4,4,1,1,8,8,3,3,7,7],"right_children":[2,8,4,12,6,-1,-1,14,10,-1,-1,-1,-1,-1,-1],"split_conditions":[-5.439944E-1,-2.1734748E-2,-7.76594E-1,-9.1651213E-1,-5.390149E-1,1.0178647E-2,8.5631915E-4,1.687831E-2,7.1196723E-1,-1.1686848E-2,-1.2165303E-3,1.2435249E-2,-9.240314E-3,-3.8585223E-3,1.1324811E-2],"split_indices":[48,76,8,69,64,0,0,29,29,0,0,0,0,0,0],"split_type":[0,0,0,0,0,0,0,0,0,0,0,0,0,0,0],"sum_hessian":[1.6707872E3,3.928418E2,1.2779454E3,1.9021967E2,1.0877257E3,3.646833E2,7.230425E2,7.073141E1,3.221104E2,2.4989183E2,7.221857E1,1.1248285E1,1.7897139E2,4.442367E1,2.6307735E1],"tree_param":{"num_deleted":"0","num_feature":"86","num_nodes":"15","size_leaf_vector":"1"}},{"base_weights":[-1.9541641E-3,-3.3124208E-1,3.0197433E-1,1.2337242E0,1.7351955E-1,4.660242E-3,-4.486929E-3,1.820025E-1,-5.2342975E-1,1.9943987E-3,-8.883473E-3,-6.577947E-3,5.235734E-3,1.6949115E-2,7.6819635E-3],"categories":[],"categories_nodes":[],"categories_segments":[],"categories_sizes":[],"default_left":[0,0,0,0,0,0,0,0,0,0,0,0,0,0,0],"id":52,"left_children":[1,7,3,13,5,-1,-1,11,9,-1,-1,-1,-1,-1,-1],"loss_changes":[1.661255E2,7.859856E1,1.0328851E2,7.8363647E0,8.0525215E1,0E0,0E0,3.6436398E1,7.414818E1,0E0,0E0,0E0,0E0,0E0,0E0],"parents":[2147483647,0,0,2,2,4,4,1,1,8,8,7,7,3,3],"right_children":[2,8,4,14,6,-1,-1,12,10,-1,-1,-1,-1,-1,-1],"split_conditions":[-1.5580332E-1,-2.4391612E-2,-8.849387E-1,2.5890106E-1,1.0003557E0,4.660242E-3,-4.486929E-3,-8.554415E-1,-3.3479053E-1,1.9943987E-3,-8.883473E-3,-6.577947E-3,5.235734E-3,1.6949115E-2,7.6819635E-3],"split_indices":[71,49,49,25,7,0,0,25,76,0,0,0,0,0,0],"split_type":[0,0,0,0,0,0,0,0,0,0,0,0,0,0,0],"sum_hessian":[1.6597733E3,7.966573E2,8.6311597E2,1.0449014E2,7.5862585E2,5.520379E2,2.0658795E2,2.1703331E2,5.7962396E2,1.2471357E2,4.549104E2,5.4362247E1,1.6267107E2,8.718232E1,1.7307827E1],"tree_param":{"num_deleted":"0","num_feature":"86","num_nodes":"15","size_leaf_vector":"1"}},{"base_weights":[-1.3208928E-2,4.9540383E-1,-1.6541399E-1,6.066027E-1,-3.7083834E-1,-7.933433E-3,-1.412649E-3,-5.4738927E-3,9.683088E-3,-1.1785061E-1,5.9656185E-1,9.294617E-3,2.426554E-4,6.953556E-3,-7.467801E-3],"categories":[],"categories_nodes":[],"categories_segments":[],"categories_sizes":[],"default_left":[0,0,0,0,0,0,0,0,0,0,0,0,0,0,0],"id":53,"left_children":[1,9,3,7,5,-1,-1,-1,-1,13,11,-1,-1,-1,-1],"loss_changes":[1.2967505E2,2.3942863E1,2.0448705E2,4.7593163E1,6.926465E1,0E0,0E0,0E0,0E0,1.7705284E1,2.8095833E1,0E0,0E0,0E0,0E0],"parents":[2147483647,0,0,2,2,4,4,3,3,1,1,10,10,9,9],"right_children":[2,10,4,8,6,-1,-1,-1,-1,14,12,-1,-1,-1,-1],"split_conditions":[-4.913184E-1,-6.7439425E-1,-4.5466515E-1,-1.0481145E0,1.5222783E-3,-7.933433E-3,-1.412649E-3,-5.4738927E-3,9.683088E-3,-6.8310085E-3,5.092984E-1,9.294617E-3,2.426554E-4,6.953556E-3,-7.467801E-3],"split_indices":[76,2,49,11,48,0,0,0,0,7,83,0,0,0,0],"split_type":[0,0,0,0,0,0,0,0,0,0,0,0,0,0,0],"sum_hessian":[1.6749667E3,3.8574335E2,1.2892234E3,2.7091263E2,1.0183107E3,5.0322272E2,5.15088E2,3.75228E1,2.3338983E2,5.4609344E1,3.31134E2,2.638861E2,6.724789E1,2.2689592E1,3.1919752E1],"tree_param":{"num_deleted":"0","num_feature":"86","num_nodes":"15","size_leaf_vector":"1"}},{"base_weights":[-2.3507553E-3,4.232102E-1,-2.8703246E-1,-9.965161E-1,-1.4018215E-1,1.1303855E0,2.709568E-1,-2.5272649E-3,6.9772596E-3,7.4177696E-3,-2.684702E-3,1.09388E-3,-1.40215205E-2,1.5456572E-2,7.4864733E-3],"categories":[],"categories_nodes":[],"categories_segments":[],"categories_sizes":[],"default_left":[0,0,0,0,0,0,0,0,0,0,0,0,0,0,0],"id":54,"left_children":[1,5,3,11,9,13,7,-1,-1,-1,-1,-1,-1,-1,-1],"loss_changes":[2.0353482E2,7.2471725E1,1.04862915E2,2.3441238E1,4.565229E1,6.6599426E0,7.532491E1,0E0,0E0,0E0,0E0,0E0,0E0,0E0,0E0],"parents":[2147483647,0,0,2,2,1,1,6,6,4,4,3,3,5,5],"right_children":[2,6,4,12,10,14,8,-1,-1,-1,-1,-1,-1,-1,-1],"split_conditions":[-2.4391612E-2,-8.849387E-1,-3.5806713E-1,-9.826016E-1,-5.390149E-1,-7.8368396E-1,-6.5171003E-1,-2.5272649E-3,6.9772596E-3,7.4177696E-3,-2.684702E-3,1.09388E-3,-1.40215205E-2,1.5456572E-2,7.4864733E-3],"split_indices":[49,49,50,16,64,66,12,0,0,0,0,0,0,0,0],"split_type":[0,0,0,0,0,0,0,0,0,0,0,0,0,0,0],"sum_hessian":[1.6798855E3,6.733135E2,1.0065721E3,1.7253137E2,8.340407E2,1.1918792E2,5.5412555E2,2.093193E2,3.4480624E2,7.692266E1,7.5711804E2,1.786141E1,1.5466997E2,9.925318E1,1.9934744E1],"tree_param":{"num_deleted":"0","num_feature":"86","num_nodes":"15","size_leaf_vector":"1"}},{"base_weights":[-3.7156513E-3,4.0797806E-1,-2.0021819E-1,-5.371792E-1,5.925193E-1,-8.5206115E-1,-8.685781E-2,2.8264269E-3,-3.8134062E-3,1.1073028E-3,9.8816715E-3,6.287314E-4,-1.3187296E-2,-1.6111674E-3,-1.313131E-2],"categories":[],"categories_nodes":[],"categories_segments":[],"categories_sizes":[],"default_left":[0,0,0,0,0,0,0,0,0,0,0,0,0,0,0],"id":55,"left_children":[1,3,5,13,9,11,7,-1,-1,-1,-1,-1,-1,-1,-1],"loss_changes":[1.360242E2,9.477737E1,8.4092476E1,1.8588327E1,4.5346542E1,3.0882103E1,6.622877E1,0E0,0E0,0E0,0E0,0E0,0E0,0E0,0E0],"parents":[2147483647,0,0,1,1,2,2,6,6,4,4,5,5,3,3],"right_children":[2,4,6,14,10,12,8,-1,-1,-1,-1,-1,-1,-1,-1],"split_conditions":[-5.390149E-1,-5.439944E-1,-3.5806713E-1,1.6622236E-1,-6.7439425E-1,-4.4110563E-1,-1.8029006E-1,2.8264269E-3,-3.8134062E-3,1.1073028E-3,9.8816715E-3,6.287314E-4,-1.3187296E-2,-1.6111674E-3,-1.313131E-2],"split_indices":[64,48,50,16,2,30,30,0,0,0,0,0,0,0,0],"split_type":[0,0,0,0,0,0,0,0,0,0,0,0,0,0,0],"sum_hessian":[1.6812733E3,5.4316705E2,1.1381062E3,8.869949E1,4.544676E2,1.685221E2,9.695841E2,3.9829828E2,5.712859E2,1.2824165E2,3.2622592E2,3.0944475E1,1.3757762E2,4.946428E1,3.923521E1],"tree_param":{"num_deleted":"0","num_feature":"86","num_nodes":"15","size_leaf_vector":"1"}},{"base_weights":[-6.6539855E-3,-5.34884E-1,1.5498431E-1,5.3357464E-1,-1.5845217E-1,6.90252E-4,-6.699074E-3,3.5262748E-3,1.02163255E-2,4.5268425E-1,-6.3656217E-1,1.9068172E-3,-1.0086792E-2,2.3319779E-2,4.177207E-3],"categories":[],"categories_nodes":[],"categories_segments":[],"categories_sizes":[],"default_left":[0,0,0,0,0,0,0,0,0,0,0,0,0,0,0],"id":56,"left_children":[1,9,3,7,5,-1,-1,-1,-1,13,11,-1,-1,-1,-1],"loss_changes":[1.4202313E2,3.915825E1,1.5114142E2,4.113646E1,5.6207253E1,0E0,0E0,0E0,0E0,6.0370154E0,4.7526886E1,0E0,0E0,0E0,0E0],"parents":[2147483647,0,0,2,2,4,4,3,3,1,1,10,10,9,9],"right_children":[2,10,4,8,6,-1,-1,-1,-1,14,12,-1,-1,-1,-1],"split_conditions":[-5.439944E-1,-4.913184E-1,-2.4391612E-2,-3.8956964E-1,1.3479313E-1,6.90252E-4,-6.699074E-3,3.5262748E-3,1.02163255E-2,-1.5872551E0,-4.1457748E-1,1.9068172E-3,-1.0086792E-2,2.3319779E-2,4.177207E-3],"split_indices":[48,76,49,14,76,0,0,0,0,20,9,0,0,0,0],"split_type":[0,0,0,0,0,0,0,0,0,0,0,0,0,0,0],"sum_hessian":[1.6632034E3,3.8966144E2,1.2735419E3,5.768041E2,6.9673785E2,4.4493002E2,2.5180782E2,3.058772E2,2.7092688E2,3.6343594E1,3.5331784E2,6.2735374E1,2.9058246E2,2.721459E0,3.3622135E1],"tree_param":{"num_deleted":"0","num_feature":"86","num_nodes":"15","size_leaf_vector":"1"}},{"base_weights":[-9.138629E-3,1.5591541E-1,-4.7042596E-1,-1.2837808E-1,4.525953E-1,1.206288E-3,9.943386E-3,5.958253E-3,-3.929778E-3,-6.2437993E-1,3.8275364E-1,-9.024151E-3,4.87675E-3,1.1722509E-2,1.6182428E-3],"categories":[],"categories_nodes":[],"categories_segments":[],"categories_sizes":[],"default_left":[0,0,0,0,0,0,0,0,0,0,0,0,0,0,0],"id":57,"left_children":[1,3,9,7,5,-1,-1,-1,-1,11,13,-1,-1,-1,-1],"loss_changes":[1.26450294E2,1.0317051E2,5.7506912E1,7.0308716E1,7.3069435E1,0E0,0E0,0E0,0E0,3.6720627E1,9.395809E0,0E0,0E0,0E0,0E0],"parents":[2147483647,0,0,1,1,4,4,3,3,2,2,9,9,10,10],"right_children":[2,4,10,8,6,-1,-1,-1,-1,12,14,-1,-1,-1,-1],"split_conditions":[5.543645E-1,-2.7064094E-2,3.2867067E-2,-4.5466515E-1,7.873067E-3,1.206288E-3,9.943386E-3,5.958253E-3,-3.929778E-3,1.2810484E0,-8.849387E-1,-9.024151E-3,4.87675E-3,1.1722509E-2,1.6182428E-3],"split_indices":[70,29,71,49,8,0,0,0,0,10,49,0,0,0,0],"split_type":[0,0,0,0,0,0,0,0,0,0,0,0,0,0,0],"sum_hessian":[1.6606432E3,1.2230563E3,4.3758685E2,6.2457745E2,5.984789E2,2.9363788E2,3.04841E2,1.4682608E2,4.7775137E2,3.7071924E2,6.686761E1,3.3822498E2,3.249429E1,2.0880825E1,4.5986782E1],"tree_param":{"num_deleted":"0","num_feature":"86","num_nodes":"15","size_leaf_vector":"1"}},{"base_weights":[2.2574789E-4,4.0015304E-1,-1.9080237E-1,-7.476813E-1,1.757308E-2,-4.2409238E-1,6.096696E-1,-2.3890808E-3,3.5841202E-3,-2.0841194E-2,-8.156431E-3,2.935604E-3,-9.651778E-3,6.489998E-3,1.3534883E-2],"categories":[],"categories_nodes":[],"categories_segments":[],"categories_sizes":[],"default_left":[0,0,0,0,0,0,0,0,0,0,0,0,0,0,0],"id":58,"left_children":[1,5,3,9,7,11,13,-1,-1,-1,-1,-1,-1,-1,-1],"loss_changes":[1.2655918E2,9.2498535E1,1.3009451E2,2.6619263E1,4.583478E1,2.4917376E1,1.8224533E1,0E0,0E0,0E0,0E0,0E0,0E0,0E0,0E0],"parents":[2147483647,0,0,2,2,1,1,4,4,3,3,5,5,6,6],"right_children":[2,6,4,10,8,12,14,-1,-1,-1,-1,-1,-1,-1,-1],"split_conditions":[-5.390149E-1,-7.76594E-1,-3.8436046E-1,-1.1688275E0,4.0010658E-1,-2.6520917E-1,5.0215244E-1,-2.3890808E-3,3.5841202E-3,-2.0841194E-2,-8.156431E-3,2.935604E-3,-9.651778E-3,6.489998E-3,1.3534883E-2],"split_indices":[64,8,8,8,8,35,6,0,0,0,0,0,0,0,0],"split_type":[0,0,0,0,0,0,0,0,0,0,0,0,0,0,0],"sum_hessian":[1.656422E3,5.354269E2,1.1209951E3,3.0519644E2,8.157987E2,1.0849526E2,4.2693158E2,4.5950513E2,3.5629358E2,2.849736E1,2.7669907E2,3.7502056E1,7.099321E1,3.5854404E2,6.8387566E1],"tree_param":{"num_deleted":"0","num_feature":"86","num_nodes":"15","size_leaf_vector":"1"}},{"base_weights":[-1.2561525E-3,-3.1559157E-1,2.8928655E-1,-5.397511E-1,4.343709E-1,9.824045E-3,1.4394177E-3,-1.5738404E-1,-9.4341385E-1,-1.083097E-2,-8.982095E-4,9.339503E-3,-8.95388E-3,1.0865989E-2,-1.2361688E-2],"categories":[],"categories_nodes":[],"categories_segments":[],"categories_sizes":[],"default_left":[0,0,0,0,0,0,0,0,0,0,0,0,0,0,0],"id":59,"left_children":[1,7,3,11,5,-1,-1,9,13,-1,-1,-1,-1,-1,-1],"loss_changes":[1.5269038E2,7.974816E1,1.04518875E2,2.9448746E1,8.2971664E1,0E0,0E0,3.889654E1,1.3402054E1,0E0,0E0,0E0,0E0,0E0,0E0],"parents":[2147483647,0,0,2,2,4,4,1,1,7,7,3,3,8,8],"right_children":[2,8,4,12,6,-1,-1,10,14,-1,-1,-1,-1,-1,-1],"split_conditions":[-1.5580332E-1,1.1304904E0,-7.76594E-1,-9.254254E-1,-2.308373E-2,9.824045E-3,1.4394177E-3,-1.0213752E0,-1.392201E0,-1.083097E-2,-8.982095E-4,9.339503E-3,-8.95388E-3,1.0865989E-2,-1.2361688E-2],"split_indices":[71,70,8,64,9,0,0,11,35,0,0,0,0,0,0],"split_type":[0,0,0,0,0,0,0,0,0,0,0,0,0,0,0],"sum_hessian":[1.6717385E3,8.029976E2,8.6874084E2,1.2935179E2,7.3938904E2,3.5181076E2,3.875783E2,6.414589E2,1.6153873E2,6.895936E1,5.724996E2,1.5571613E1,1.1378018E2,3.9201448E0,1.5761858E2],"tree_param":{"num_deleted":"0","num_feature":"86","num_nodes":"15","size_leaf_vector":"1"}},{"base_weights":[1.6948821E-2,1.9357204E-1,-4.776089E-1,3.0779455E-2,7.283323E-1,4.5330045E-3,-2.278391E-3,-6.0420567E-1,3.6618167E-1,-3.665915E-4,-1.086658E-2,1.16196675E-2,4.780116E-3,-6.7554414E-3,8.589617E-3],"categories":[],"categories_nodes":[],"categories_segments":[],"categories_sizes":[],"default_left":[0,0,0,0,0,0,0,0,0,0,0,0,0,0,0],"id":60,"left_children":[1,3,7,5,11,-1,-1,9,13,-1,-1,-1,-1,-1,-1],"loss_changes":[1.4476897E2,1.0630713E2,4.660623E1,6.620598E1,1.9804276E1,0E0,0E0,5.7797455E1,1.6599083E1,0E0,0E0,0E0,0E0,0E0,0E0],"parents":[2147483647,0,0,1,1,3,3,2,2,7,7,4,4,8,8],"right_children":[2,4,8,6,12,-1,-1,10,14,-1,-1,-1,-1,-1,-1],"split_conditions":[5.543645E-1,4.8027092E-1,1.188989E0,-3.4772706E-1,1.2732238E-1,4.5330045E-3,-2.278391E-3,-2.4391612E-2,-7.3008585E-1,-3.665915E-4,-1.086658E-2,1.16196675E-2,4.780116E-3,-6.7554414E-3,8.589617E-3],"split_indices":[70,29,29,52,52,0,0,49,17,0,0,0,0,0,0],"split_type":[0,0,0,0,0,0,0,0,0,0,0,0,0,0,0],"sum_hessian":[1.6571997E3,1.2211461E3,4.3605353E2,9.362297E2,2.849164E2,3.6603952E2,5.701902E2,3.7919113E2,5.6862392E1,1.19714455E2,2.5947668E2,1.8003462E2,1.0488179E2,1.4849431E1,4.2012962E1],"tree_param":{"num_deleted":"0","num_feature":"86","num_nodes":"15","size_leaf_vector":"1"}},{"base_weights":[4.034656E-3,1.7064905E-1,-4.596E-1,-1.2773111E-1,4.7669756E-1,4.694995E-3,-4.2505413E-3,3.2188925E-1,-6.22016E-1,4.578795E-3,1.3430484E-2,-9.435033E-3,1.9770418E-3,-6.0247867E-3,5.8435355E-3],"categories":[],"categories_nodes":[],"categories_segments":[],"categories_sizes":[],"default_left":[0,0,0,0,0,0,0,0,0,0,0,0,0,0,0],"id":61,"left_children":[1,3,7,5,9,-1,-1,13,11,-1,-1,-1,-1,-1,-1],"loss_changes":[1.2896146E2,1.1215813E2,5.6034172E1,6.646835E1,3.9969086E1,0E0,0E0,8.910077E0,3.7870163E1,0E0,0E0,0E0,0E0,0E0,0E0],"parents":[2147483647,0,0,1,1,3,3,2,2,4,4,8,8,7,7],"right_children":[2,4,8,6,10,-1,-1,14,12,-1,-1,-1,-1,-1,-1],"split_conditions":[5.543645E-1,-2.7064094E-2,-8.4317994E-1,-5.390149E-1,1.3472636E0,4.694995E-3,-4.2505413E-3,-1.0614429E0,1.0891473E0,4.578795E-3,1.3430484E-2,-9.435033E-3,1.9770418E-3,-6.0247867E-3,5.8435355E-3],"split_indices":[70,29,67,64,29,0,0,82,29,0,0,0,0,0,0],"split_type":[0,0,0,0,0,0,0,0,0,0,0,0,0,0,0],"sum_hessian":[1.6693123E3,1.2280535E3,4.4125882E2,6.2182916E2,6.0622437E2,1.8445413E2,4.37375E2,7.590716E1,3.6535165E2,5.1183014E2,9.439422E1,3.1222183E2,5.3129826E1,1.1606301E1,6.430086E1],"tree_param":{"num_deleted":"0","num_feature":"86","num_nodes":"15","size_leaf_vector":"1"}},{"base_weights":[-2.898147E-4,4.2018703E-1,-2.876817E-1,-1.1682133E-3,-5.3331137E-1,8.749018E-2,7.068624E-1,2.9050522E-3,-6.8428726E-3,1.2051233E-2,-9.6030685E-4,-3.1661415E-3,-1.0185327E-2,9.676035E-3,-6.9484496E-3],"categories":[],"categories_nodes":[],"categories_segments":[],"categories_sizes":[],"default_left":[0,0,0,0,0,0,0,0,0,0,0,0,0,0,0],"id":62,"left_children":[1,5,3,7,11,9,13,-1,-1,-1,-1,-1,-1,-1,-1],"loss_changes":[2.0094138E2,6.437909E1,6.951087E1,5.819597E1,4.189998E1,4.5033264E1,3.0813293E1,0E0,0E0,0E0,0E0,0E0,0E0,0E0,0E0],"parents":[2147483647,0,0,2,2,1,1,3,3,5,5,4,4,6,6],"right_children":[2,6,4,8,12,10,14,-1,-1,-1,-1,-1,-1,-1,-1],"split_conditions":[-2.4391612E-2,-1.4430173E-1,1.2346111E-2,1.3479313E-1,-1.0706429E-1,-8.849387E-1,8.7311953E-1,2.9050522E-3,-6.8428726E-3,1.2051233E-2,-9.6030685E-4,-3.1661415E-3,-1.0185327E-2,9.676035E-3,-6.9484496E-3],"split_indices":[49,29,56,76,30,49,30,0,0,0,0,0,0,0,0],"split_type":[0,0,0,0,0,0,0,0,0,0,0,0,0,0,0],"sum_hessian":[1.6627031E3,6.7502783E2,9.8767535E2,4.5594376E2,5.3173157E2,3.1249146E2,3.6253638E2,3.194043E2,1.3653947E2,4.927564E1,2.6321582E2,2.6665707E2,2.650745E2,3.4424527E2,1.8291092E1],"tree_param":{"num_deleted":"0","num_feature":"86","num_nodes":"15","size_leaf_vector":"1"}},{"base_weights":[-3.4870158E-3,1.6588478E-1,-4.759294E-1,7.10057E-1,-8.617522E-3,-5.5794693E-3,1.8924179E-3,-6.933574E-1,1.501486E-1,-1.0551638E-2,5.2822E-4,1.5324518E-2,6.223047E-3,8.316275E-3,-5.020799E-3],"categories":[],"categories_nodes":[],"categories_segments":[],"categories_sizes":[],"default_left":[0,0,0,0,0,0,0,0,0,0,0,0,0,0,0],"id":63,"left_children":[1,3,7,11,5,-1,-1,9,13,-1,-1,-1,-1,-1,-1],"loss_changes":[1.3258942E2,1.1582562E2,5.9536057E1,3.236737E1,6.469896E1,0E0,0E0,3.6007263E1,3.2078957E1,0E0,0E0,0E0,0E0,0E0,0E0],"parents":[2147483647,0,0,1,1,4,4,2,2,7,7,3,3,8,8],"right_children":[2,4,8,12,6,-1,-1,10,14,-1,-1,-1,-1,-1,-1],"split_conditions":[5.543645E-1,-4.5466515E-1,1.5222783E-3,-8.849387E-1,-6.326432E-1,-5.5794693E-3,1.8924179E-3,9.945237E-1,-5.510902E-1,-1.0551638E-2,5.2822E-4,1.5324518E-2,6.223047E-3,8.316275E-3,-5.020799E-3],"split_indices":[70,49,48,49,12,0,0,29,64,0,0,0,0,0,0],"split_type":[0,0,0,0,0,0,0,0,0,0,0,0,0,0,0],"sum_hessian":[1.6568108E3,1.2196129E3,4.371979E2,2.9608755E2,9.2352527E2,2.4719075E2,6.7633453E2,3.2450394E2,1.12693954E2,2.6930386E2,5.520007E1,8.6181496E1,2.0990607E2,5.828064E1,5.4413315E1],"tree_param":{"num_deleted":"0","num_feature":"86","num_nodes":"15","size_leaf_vector":"1"}},{"base_weights":[7.128224E-3,1.6934831E-1,-4.5147172E-1,4.1181645E-1,-6.3092545E-2,4.1762996E-3,-4.259304E-3,2.5496685E-3,1.05365785E-2,1.6945809E-1,-6.3007337E-1,-9.409857E-3,2.3578333E-3,-1.00399675E-2,3.5902446E-3],"categories":[],"categories_nodes":[],"categories_segments":[],"categories_sizes":[],"default_left":[0,0,0,0,0,0,0,0,0,0,0,0,0,0,0],"id":64,"left_children":[1,3,9,7,5,-1,-1,-1,-1,13,11,-1,-1,-1,-1],"loss_changes":[1.24018394E2,6.940927E1,4.831807E1,5.398948E1,6.93531E1,0E0,0E0,0E0,0E0,1.1165782E1,3.4003708E1,0E0,0E0,0E0,0E0],"parents":[2147483647,0,0,1,1,4,4,3,3,2,2,10,10,9,9],"right_children":[2,4,10,8,6,-1,-1,-1,-1,14,12,-1,-1,-1,-1],"split_conditions":[5.543645E-1,-2.308373E-2,-7.3424935E-1,7.481698E-1,-4.0319425E-1,4.1762996E-3,-4.259304E-3,2.5496685E-3,1.05365785E-2,-3.890512E-1,1.188989E0,-9.409857E-3,2.3578333E-3,-1.00399675E-2,3.5902446E-3],"split_indices":[70,9,83,29,54,0,0,0,0,71,29,0,0,0,0],"split_type":[0,0,0,0,0,0,0,0,0,0,0,0,0,0,0],"sum_hessian":[1.6669144E3,1.2313956E3,4.355188E2,6.026821E2,6.2871356E2,2.5865512E2,3.700584E2,4.0672293E2,1.9595918E2,9.728061E1,3.382382E2,2.9416013E2,4.407807E1,1.0452415E1,8.682819E1],"tree_param":{"num_deleted":"0","num_feature":"86","num_nodes":"15","size_leaf_vector":"1"}},{"base_weights":[-2.0161963E-3,2.8874335E-1,-2.3168454E-1,8.1879514E-1,-4.902284E-2,-9.93209E-1,-8.2940884E-2,5.5737407E-3,-3.8746593E-3,-3.7104606E-3,3.3936345E-3,4.2371387E-3,-1.4494053E-2,4.98308E-3,1.2161636E-2],"categories":[],"categories_nodes":[],"categories_segments":[],"categories_sizes":[],"default_left":[0,0,0,0,0,0,0,0,0,0,0,0,0,0,0],"id":65,"left_children":[1,3,5,13,9,11,7,-1,-1,-1,-1,-1,-1,-1,-1],"loss_changes":[1.10810165E2,1.3111124E2,1.0500102E2,1.8420242E1,3.5537056E1,3.3597137E1,9.3142075E1,0E0,0E0,0E0,0E0,0E0,0E0,0E0,0E0],"parents":[2147483647,0,0,1,1,2,2,6,6,4,4,5,5,3,3],"right_children":[2,4,6,14,10,12,8,-1,-1,-1,-1,-1,-1,-1,-1],"split_conditions":[-6.8310085E-3,-2.4391612E-2,-7.76594E-1,-8.186015E-1,-1.6638818E-1,-9.412547E-1,-3.8419408E-1,5.5737407E-3,-3.8746593E-3,-3.7104606E-3,3.3936345E-3,4.2371387E-3,-1.4494053E-2,4.98308E-3,1.2161636E-2],"split_indices":[7,49,8,11,71,53,56,0,0,0,0,0,0,0,0],"split_type":[0,0,0,0,0,0,0,0,0,0,0,0,0,0,0],"sum_hessian":[1.6592274E3,7.3220776E2,9.270197E2,2.8494977E2,4.47258E2,1.5140347E2,7.756162E2,2.3293195E2,5.4268427E2,2.5224931E2,1.950087E2,1.6791094E1,1.3461238E2,7.656351E1,2.0838626E2],"tree_param":{"num_deleted":"0","num_feature":"86","num_nodes":"15","size_leaf_vector":"1"}},{"base_weights":[-1.5359979E-2,2.9118896E-1,-2.361089E-1,-4.3545783E-2,-7.038388E-1,-9.236749E-2,5.099969E-1,-5.9642973E-3,1.6795701E-3,-1.0805259E-2,1.93446E-3,1.974622E-2,-1.9879665E-3,3.657916E-4,7.3447055E-3],"categories":[],"categories_nodes":[],"categories_segments":[],"categories_sizes":[],"default_left":[0,0,0,0,0,0,0,0,0,0,0,0,0,0,0],"id":66,"left_children":[1,5,3,7,9,11,13,-1,-1,-1,-1,-1,-1,-1,-1],"loss_changes":[1.1189449E2,5.8101376E1,8.657509E1,5.2544167E1,3.8665436E1,2.8047152E1,1.6434494E1,0E0,0E0,0E0,0E0,0E0,0E0,0E0,0E0],"parents":[2147483647,0,0,2,2,1,1,3,3,4,4,5,5,6,6],"right_children":[2,6,4,8,10,12,14,-1,-1,-1,-1,-1,-1,-1,-1],"split_conditions":[-3.3373424E-1,-7.1709067E-1,3.6088294E-1,-5.206659E-1,7.327018E-1,-1.9530046E0,-1.121111E0,-5.9642973E-3,1.6795701E-3,-1.0805259E-2,1.93446E-3,1.974622E-2,-1.9879665E-3,3.657916E-4,7.3447055E-3],"split_indices":[64,26,70,26,10,42,57,0,0,0,0,0,0,0,0],"split_type":[0,0,0,0,0,0,0,0,0,0,0,0,0,0,0],"sum_hessian":[1.6533746E3,6.921499E2,9.612248E2,6.809685E2,2.8025635E2,2.5142813E2,4.4072174E2,1.9809248E2,4.82876E2,2.3610468E2,4.4151665E1,9.5708475E0,2.4185728E2,6.1265472E1,3.7945627E2],"tree_param":{"num_deleted":"0","num_feature":"86","num_nodes":"15","size_leaf_vector":"1"}},{"base_weights":[-1.1257917E-2,-1.018305E-1,7.473771E-1,-6.61366E-1,6.772839E-2,2.9161505E-3,-3.8406984E-3,4.705519E-1,1.1849477E0,1.8637072E-2,2.7381035E-3,8.521145E-3,-5.0309193E-3,-5.154225E-3,-1.0749742E-2],"categories":[],"categories_nodes":[],"categories_segments":[],"categories_sizes":[],"default_left":[0,0,0,0,0,0,0,0,0,0,0,0,0,0,0],"id":67,"left_children":[1,3,7,13,5,-1,-1,11,9,-1,-1,-1,-1,-1,-1],"loss_changes":[1.1383546E2,1.404274E2,2.1350662E1,1.6990433E1,7.0527374E1,0E0,0E0,1.9997147E1,2.018547E1,0E0,0E0,0E0,0E0,0E0,0E0],"parents":[2147483647,0,0,1,1,4,4,2,2,8,8,7,7,3,3],"right_children":[2,4,8,14,6,-1,-1,12,10,-1,-1,-1,-1,-1,-1],"split_conditions":[1.188989E0,-5.439944E-1,-9.378196E-4,3.6013123E-1,3.7652638E-2,2.9161505E-3,-3.8406984E-3,9.515329E-1,-5.0927583E-2,1.8637072E-2,2.7381035E-3,8.521145E-3,-5.0309193E-3,-5.154225E-3,-1.0749742E-2],"split_indices":[29,48,50,61,68,0,0,61,30,0,0,0,0,0,0],"split_type":[0,0,0,0,0,0,0,0,0,0,0,0,0,0,0],"sum_hessian":[1.6566127E3,1.4799922E3,1.7662048E2,3.4414545E2,1.1358467E3,7.879812E2,3.4786548E2,1.0828636E2,6.8334114E1,5.1856895E1,1.6477219E1,8.721688E1,2.106948E1,1.5281125E2,1.9133421E2],"tree_param":{"num_deleted":"0","num_feature":"86","num_nodes":"15","size_leaf_vector":"1"}},{"base_weights":[-1.2593615E-2,1.9796845E-1,-1.4909366E-1,-6.039763E-1,7.373904E-2,8.0441E-3,-3.0445678E-3,3.9042425E-1,-2.051197E-1,-2.1079145E-2,-5.9567406E-3,-1.349396E-2,-8.2076713E-4,7.107331E-3,2.0740062E-3],"categories":[],"categories_nodes":[],"categories_segments":[],"categories_sizes":[],"default_left":[0,0,0,0,0,0,0,0,0,0,0,0,0,0,0],"id":68,"left_children":[1,7,3,9,5,-1,-1,13,11,-1,-1,-1,-1,-1,-1],"loss_changes":[4.7352108E1,5.0273346E1,1.013246E2,4.5259865E1,1.2132212E2,0E0,0E0,1.7531357E1,2.5526106E1,0E0,0E0,0E0,0E0,0E0,0E0],"parents":[2147483647,0,0,2,2,4,4,1,1,3,3,8,8,7,7],"right_children":[2,8,4,10,6,-1,-1,14,12,-1,-1,-1,-1,-1,-1],"split_conditions":[-2.7226007E-1,4.511161E-1,-3.8436046E-1,-1.1688275E0,-2.4391612E-2,8.0441E-3,-3.0445678E-3,-3.0507988E-1,-1.0410192E0,-2.1079145E-2,-5.9567406E-3,-1.349396E-2,-8.2076713E-4,7.107331E-3,2.0740062E-3],"split_indices":[16,61,8,8,49,0,0,54,26,0,0,0,0,0,0],"split_type":[0,0,0,0,0,0,0,0,0,0,0,0,0,0,0],"sum_hessian":[1.6473596E3,6.4787775E2,9.9948193E2,3.2859573E2,6.7088617E2,2.399482E2,4.30938E2,4.3852173E2,2.09356E2,3.451029E1,2.9408545E2,2.8720678E1,1.8063533E2,2.4441446E2,1.9410728E2],"tree_param":{"num_deleted":"0","num_feature":"86","num_nodes":"15","size_leaf_vector":"1"}},{"base_weights":[1.3010504E-2,-2.9556102E-1,2.6693028E-1,1.7816253E-1,-4.5053515E-1,2.9828113E-3,-7.791201E-3,4.8129363E-3,-1.15564875E-2,6.6052514E-1,1.6061983E-1,-4.282794E-4,8.37286E-3,-4.044033E-3,1.0069501E-2],"categories":[],"categories_nodes":[],"categories_segments":[],"categories_sizes":[],"default_left":[0,0,0,0,0,0,0,0,0,0,0,0,0,0,0],"id":69,"left_children":[1,3,9,7,5,-1,-1,-1,-1,13,11,-1,-1,-1,-1],"loss_changes":[1.3016908E2,5.506517E1,3.8122017E1,4.22038E1,6.729654E1,0E0,0E0,0E0,0E0,2.76792E1,7.122511E1,0E0,0E0,0E0,0E0],"parents":[2147483647,0,0,1,1,4,4,3,3,2,2,10,10,9,9],"right_children":[2,4,10,8,6,-1,-1,-1,-1,14,12,-1,-1,-1,-1],"split_conditions":[-1.6850792E-1,-4.7922203E-1,-8.13642E-1,1.4410338E0,-4.913184E-1,2.9828113E-3,-7.791201E-3,4.8129363E-3,-1.15564875E-2,-5.439944E-1,3.2580674E-1,-4.282794E-4,8.37286E-3,-4.044033E-3,1.0069501E-2],"split_indices":[71,7,66,70,76,0,0,0,0,48,29,0,0,0,0],"split_type":[0,0,0,0,0,0,0,0,0,0,0,0,0,0,0],"sum_hessian":[1.6611777E3,7.4987213E2,9.113056E2,1.8483104E2,5.650411E2,1.13242226E2,4.5179886E2,1.5567946E2,2.9151577E1,1.9370247E2,7.176031E2,5.190237E2,1.9857945E2,2.4864304E1,1.6883818E2],"tree_param":{"num_deleted":"0","num_feature":"86","num_nodes":"15","size_leaf_vector":"1"}},{"base_weights":[-1.6740246E-2,-5.0836754E-1,1.3430314E-1,3.9879414E-1,-8.4104486E-2,-8.978685E-1,-1.1925891E-1,2.1407232E-3,-4.5565604E-3,7.846049E-3,1.2432231E-3,8.4845545E-3,-4.2613517E-3,-1.2145065E-2,-5.1374063E-3],"categories":[],"categories_nodes":[],"categories_segments":[],"categories_sizes":[],"default_left":[0,0,0,0,0,0,0,0,0,0,0,0,0,0,0],"id":70,"left_children":[1,5,3,9,7,13,11,-1,-1,-1,-1,-1,-1,-1,-1],"loss_changes":[1.23498665E2,5.922612E1,7.349677E1,3.941652E1,4.9907673E1,6.9731445E0,3.4619305E1,0E0,0E0,0E0,0E0,0E0,0E0,0E0,0E0],"parents":[2147483647,0,0,2,2,1,1,4,4,3,3,6,6,5,5],"right_children":[2,6,4,10,8,14,12,-1,-1,-1,-1,-1,-1,-1,-1],"split_conditions":[-5.439944E-1,7.873067E-3,-4.0319425E-1,-5.390149E-1,-4.5654535E-2,3.339542E-1,-2.1734748E-2,2.1407232E-3,-4.5565604E-3,7.846049E-3,1.2432231E-3,8.4845545E-3,-4.2613517E-3,-1.2145065E-2,-5.1374063E-3],"split_indices":[48,8,54,64,30,26,76,0,0,0,0,0,0,0,0],"split_type":[0,0,0,0,0,0,0,0,0,0,0,0,0,0,0],"sum_hessian":[1.6629465E3,3.9080048E2,1.2721461E3,5.753564E2,6.967897E2,1.9524403E2,1.9555644E2,3.646929E2,3.3209677E2,3.2598517E2,2.4937123E2,4.246846E1,1.5308798E2,1.6948692E2,2.5757113E1],"tree_param":{"num_deleted":"0","num_feature":"86","num_nodes":"15","size_leaf_vector":"1"}},{"base_weights":[-1.2657288E-2,4.3897542E-1,-1.440485E-1,-3.951191E-1,2.3201755E-1,1.5454678E-3,-7.6899095E-3,-8.625882E-3,5.1421276E-3,6.134173E-1,1.3629329E-2,-6.705135E-3,5.420022E-3,8.372521E-3,-1.3166219E-2],"categories":[],"categories_nodes":[],"categories_segments":[],"categories_sizes":[],"default_left":[0,0,0,0,0,0,0,0,0,0,0,0,0,0,0],"id":71,"left_children":[1,9,3,5,7,-1,-1,-1,-1,13,11,-1,-1,-1,-1],"loss_changes":[9.885901E1,2.7852493E1,1.2186015E2,8.836325E1,8.547131E1,0E0,0E0,0E0,0E0,2.507132E1,2.5261194E1,0E0,0E0,0E0,0E0],"parents":[2147483647,0,0,2,2,3,3,4,4,1,1,10,10,9,9],"right_children":[2,10,4,6,8,-1,-1,-1,-1,14,12,-1,-1,-1,-1],"split_conditions":[-4.913184E-1,-4.0319425E-1,-9.244299E-2,-2.4391612E-2,-7.76594E-1,1.5454678E-3,-7.6899095E-3,-8.625882E-3,5.1421276E-3,7.7772367E-1,7.873067E-3,-6.705135E-3,5.420022E-3,8.372521E-3,-1.3166219E-2],"split_indices":[76,54,71,49,8,0,0,0,0,85,8,0,0,0,0],"split_type":[0,0,0,0,0,0,0,0,0,0,0,0,0,0,0],"sum_hessian":[1.6658331E3,3.75364E2,1.2904691E3,7.738446E2,5.1662445E2,2.3050497E2,5.4333966E2,8.4083374E1,4.3254108E2,2.6615924E2,1.0920479E2,4.7265324E1,6.193947E1,2.574975E2,8.661748E0],"tree_param":{"num_deleted":"0","num_feature":"86","num_nodes":"15","size_leaf_vector":"1"}},{"base_weights":[5.3465213E-3,4.1101635E-1,-2.7046895E-1,-4.155604E-2,-5.690527E-1,-2.7891943E-1,5.381426E-1,1.45555185E-2,-6.996029E-3,-1.0139352E-2,-2.0081364E-3,1.4496435E-3,-5.596122E-3,-1.0059907E-2,7.211474E-3],"categories":[],"categories_nodes":[],"categories_segments":[],"categories_sizes":[],"default_left":[0,0,0,0,0,0,0,0,0,0,0,0,0,0,0],"id":72,"left_children":[1,5,3,11,9,7,13,-1,-1,-1,-1,-1,-1,-1,-1],"loss_changes":[1.8533733E2,5.881356E1,6.738804E1,3.571907E1,4.228882E1,4.2333214E1,2.9513931E1,0E0,0E0,0E0,0E0,0E0,0E0,0E0,0E0],"parents":[2147483647,0,0,2,2,1,1,5,5,4,4,3,3,6,6],"right_children":[2,6,4,12,10,8,14,-1,-1,-1,-1,-1,-1,-1,-1],"split_conditions":[-2.4391612E-2,-1.0486181E0,1.8352483E-1,4.511161E-1,4.4071253E-2,-8.849387E-1,-1.0432521E0,1.45555185E-2,-6.996029E-3,-1.0139352E-2,-2.0081364E-3,1.4496435E-3,-5.596122E-3,-1.0059907E-2,7.211474E-3],"split_indices":[49,1,70,61,14,49,25,0,0,0,0,0,0,0,0],"split_type":[0,0,0,0,0,0,0,0,0,0,0,0,0,0,0],"sum_hessian":[1.6562645E3,6.703288E2,9.8593567E2,5.58139E2,4.2779666E2,1.0427439E2,5.6605444E2,1.6937792E1,8.733659E1,2.6852698E2,1.5926968E2,4.0218307E2,1.5595593E2,1.5838594E1,5.502158E2],"tree_param":{"num_deleted":"0","num_feature":"86","num_nodes":"15","size_leaf_vector":"1"}},{"base_weights":[-1.0908799E-2,5.161571E-1,-1.1090348E-1,-2.7410918E-1,3.2071885E-1,-8.040129E-3,-1.9241842E-3,3.626883E-2,7.9698867E-1,-2.2273026E-3,6.222905E-3,-4.1626734E-3,5.3772735E-3,1.167703E-2,4.136542E-3],"categories":[],"categories_nodes":[],"categories_segments":[],"categories_sizes":[],"default_left":[0,0,0,0,0,0,0,0,0,0,0,0,0,0,0],"id":73,"left_children":[1,7,3,5,9,-1,-1,11,13,-1,-1,-1,-1,-1,-1],"loss_changes":[8.741642E1,3.5637886E1,9.821722E1,4.4863335E1,3.381209E1,0E0,0E0,1.4227831E1,1.0635033E1,0E0,0E0,0E0,0E0,0E0,0E0],"parents":[2147483647,0,0,2,2,3,3,1,1,4,4,7,7,8,8],"right_children":[2,8,4,6,10,-1,-1,12,14,-1,-1,-1,-1,-1,-1],"split_conditions":[-4.1457748E-1,-8.3999085E-1,1.1841423E-3,-6.358824E-1,-6.1345565E-1,-8.040129E-3,-1.9241842E-3,5.943534E-1,8.877273E-1,-2.2273026E-3,6.222905E-3,-4.1626734E-3,5.3772735E-3,1.167703E-2,4.136542E-3],"split_indices":[9,2,71,11,5,0,0,22,56,0,0,0,0,0,0],"split_type":[0,0,0,0,0,0,0,0,0,0,0,0,0,0,0],"sum_hessian":[1.6585249E3,2.6441748E2,1.3941074E3,1.01163025E3,3.8247714E2,2.4837961E2,7.632507E2,9.765371E1,1.6676376E2,1.00198166E2,2.8227896E2,5.0400623E1,4.7253082E1,1.287731E2,3.799065E1],"tree_param":{"num_deleted":"0","num_feature":"86","num_nodes":"15","size_leaf_vector":"1"}},{"base_weights":[9.476781E-3,-1.3681862E-1,5.4666936E-1,4.16979E-1,-2.4770942E-1,-5.4227013E-2,7.4842083E-1,-8.591034E-3,-1.9886899E-3,-8.33694E-3,7.0723332E-3,1.1481012E-2,-2.3380585E-4,-6.929344E-3,6.2771006E-3],"categories":[],"categories_nodes":[],"categories_segments":[],"categories_sizes":[],"default_left":[0,0,0,0,0,0,0,0,0,0,0,0,0,0,0],"id":74,"left_children":[1,3,5,9,7,13,11,-1,-1,-1,-1,-1,-1,-1,-1],"loss_changes":[1.2990466E2,7.978786E1,4.29E1,3.4990192E1,4.2150627E1,2.4785793E1,3.456343E1,0E0,0E0,0E0,0E0,0E0,0E0,0E0,0E0],"parents":[2147483647,0,0,1,1,2,2,4,4,3,3,6,6,5,5],"right_children":[2,4,6,10,8,14,12,-1,-1,-1,-1,-1,-1,-1,-1],"split_conditions":[6.457683E-1,-8.3592397E-1,-8.3999085E-1,-5.439944E-1,-8.118614E-1,1.5222783E-3,1.067046E0,-8.591034E-3,-1.9886899E-3,-8.33694E-3,7.0723332E-3,1.1481012E-2,-2.3380585E-4,-6.929344E-3,6.2771006E-3],"split_indices":[29,53,2,48,1,48,70,0,0,0,0,0,0,0,0],"split_type":[0,0,0,0,0,0,0,0,0,0,0,0,0,0,0],"sum_hessian":[1.6527856E3,1.299055E3,3.5373056E2,2.1667859E2,1.0823765E3,8.891912E1,2.6481146E2,1.8149265E2,9.008838E2,2.6118826E1,1.9055975E2,2.1675348E2,4.8057976E1,4.6833656E1,4.208547E1],"tree_param":{"num_deleted":"0","num_feature":"86","num_nodes":"15","size_leaf_vector":"1"}},{"base_weights":[-1.5318477E-2,1.3804515E-1,-4.4461027E-1,-7.526073E-1,2.8632712E-1,1.0959078E-2,1.4281712E-3,1.2496522E-2,-1.1808813E-2,1.2677161E-1,-6.067598E-1,-1.1370714E-2,-3.9537926E-3,-3.971292E-3,9.317291E-3],"categories":[],"categories_nodes":[],"categories_segments":[],"categories_sizes":[],"default_left":[0,0,0,0,0,0,0,0,0,0,0,0,0,0,0],"id":75,"left_children":[1,3,9,7,5,-1,-1,-1,-1,13,11,-1,-1,-1,-1],"loss_changes":[1.0781929E2,1.5936264E2,3.994593E1,5.8045097E1,1.0507549E2,0E0,0E0,0E0,0E0,2.6235447E1,2.9512955E1,0E0,0E0,0E0,0E0],"parents":[2147483647,0,0,1,1,4,4,3,3,2,2,10,10,9,9],"right_children":[2,4,10,8,6,-1,-1,-1,-1,14,12,-1,-1,-1,-1],"split_conditions":[5.457736E-1,-7.76594E-1,-7.3424935E-1,-8.849387E-1,-4.5466515E-1,1.0959078E-2,1.4281712E-3,1.2496522E-2,-1.1808813E-2,1.5222783E-3,7.873067E-3,-1.1370714E-2,-3.9537926E-3,-3.971292E-3,9.317291E-3],"split_indices":[70,8,83,49,49,0,0,0,0,48,8,0,0,0,0],"split_type":[0,0,0,0,0,0,0,0,0,0,0,0,0,0,0],"sum_hessian":[1.6374757E3,1.2064951E3,4.3098062E2,1.721468E2,1.0343483E3,2.3335133E2,8.00997E2,1.697224E1,1.5517456E2,9.526494E1,3.3571567E2,1.6424838E2,1.7146729E2,5.5450577E1,3.9814358E1],"tree_param":{"num_deleted":"0","num_feature":"86","num_nodes":"15","size_leaf_vector":"1"}},{"base_weights":[3.178498E-3,4.797587E-1,-1.12638995E-1,-2.3072778E-1,3.3544493E-1,-1.0500195E-2,-1.2819123E-3,3.7347665E-1,1.132801E0,-2.1971723E-2,5.2676997E-3,1.3493411E-2,2.9046398E-3,1.5616484E-2,-7.511603E-3],"categories":[],"categories_nodes":[],"categories_segments":[],"categories_sizes":[],"default_left":[0,0,0,0,0,0,0,0,0,0,0,0,0,0,0],"id":76,"left_children":[1,7,3,5,11,-1,-1,9,13,-1,-1,-1,-1,-1,-1],"loss_changes":[9.071452E1,2.225985E1,6.996425E1,8.170874E1,2.1122498E1,0E0,0E0,2.8294083E1,9.137245E0,0E0,0E0,0E0,0E0,0E0,0E0],"parents":[2147483647,0,0,2,2,3,3,1,1,7,7,4,4,8,8],"right_children":[2,8,4,6,12,-1,-1,10,14,-1,-1,-1,-1,-1,-1],"split_conditions":[-7.5461483E-1,5.0215244E-1,5.7191867E-1,-3.5806713E-1,-6.2755096E-1,-1.0500195E-2,-1.2819123E-3,-1.3248838E0,1.7798376E0,-2.1971723E-2,5.2676997E-3,1.3493411E-2,2.9046398E-3,1.5616484E-2,-7.511603E-3],"split_indices":[83,6,25,50,30,0,0,50,16,0,0,0,0,0,0],"split_type":[0,0,0,0,0,0,0,0,0,0,0,0,0,0,0],"sum_hessian":[1.6432965E3,3.2123843E2,1.3220581E3,1.0463516E3,2.7570648E2,1.8177936E2,8.6457227E2,2.763861E2,4.4852337E1,6.0175943E0,2.703685E2,3.345231E1,2.4225418E2,4.205109E1,2.801246E0],"tree_param":{"num_deleted":"0","num_feature":"86","num_nodes":"15","size_leaf_vector":"1"}},{"base_weights":[7.297362E-3,-5.231096E-1,1.3081741E-1,6.139363E-1,-1.12131415E-2,-5.2257776E-3,1.6553237E-3,2.9178876E-1,-7.281816E-1,1.5646813E-2,5.7273614E-3,-8.7553094E-4,-1.0849158E-2,-2.11913E-2,5.2388976E-3],"categories":[],"categories_nodes":[],"categories_segments":[],"categories_sizes":[],"default_left":[0,0,0,0,0,0,0,0,0,0,0,0,0,0,0],"id":77,"left_children":[1,7,3,9,5,-1,-1,13,11,-1,-1,-1,-1,-1,-1],"loss_changes":[1.0782049E2,5.1966957E1,9.16014E1,3.0073814E1,6.029657E1,0E0,0E0,1.5871134E1,2.2834885E1,0E0,0E0,0E0,0E0,0E0,0E0],"parents":[2147483647,0,0,2,2,4,4,1,1,3,3,8,8,7,7],"right_children":[2,8,4,10,6,-1,-1,14,12,-1,-1,